<?xml version="1.0"?>
<opencv_storage>
<cascade>
  <stageType>BOOST</stageType>
  <featureType>HAAR</featureType>
  <height>24</height>
  <width>24</width>
  <stageParams>
    <boostType>GAB</boostType>
    <minHitRate>9.9500000476837158e-01</minHitRate>
    <maxFalseAlarm>5.0000000000000000e-01</maxFalseAlarm>
    <weightTrimRate>9.4999998807907104e-01</weightTrimRate>
    <maxDepth>1</maxDepth>
    <maxWeakCount>100</maxWeakCount></stageParams>
  <featureParams>
    <maxCatCount>0</maxCatCount>
    <featSize>1</featSize>
    <mode>BASIC</mode></featureParams>
  <stageNum>11</stageNum>
  <stages>
    <!-- stage 0 -->
    <_>
      <maxWeakCount>3</maxWeakCount>
      <stageThreshold>-1.2475843429565430e+00</stageThreshold>
      <weakClassifiers>
        <_>
          <internalNodes>
            0 -1 12 4.5824751257896423e-02</internalNodes>
          <leafValues>
            -9.1899710893630981e-01 7.5000000000000000e-01</leafValues></_>
        <_>
          <internalNodes>
            0 -1 49 -3.4973179572261870e-04</internalNodes>
          <leafValues>
            4.5813196897506714e-01 -8.9105069637298584e-01</leafValues></_>
        <_>
          <internalNodes>
            0 -1 47 2.0613356027752161e-03</internalNodes>
          <leafValues>
            -7.8671926259994507e-01 6.7464643716812134e-01</leafValues></_></weakClassifiers></_>
    <!-- stage 1 -->
    <_>
      <maxWeakCount>4</maxWeakCount>
      <stageThreshold>-2.1354029178619385e+00</stageThreshold>
      <weakClassifiers>
        <_>
          <internalNodes>
            0 -1 11 -8.8318839669227600e-02</internalNodes>
          <leafValues>
            2.0000000298023224e-01 -9.1937071084976196e-01</leafValues></_>
        <_>
          <internalNodes>
            0 -1 15 5.1536510000005364e-04</internalNodes>
          <leafValues>
            -8.0721062421798706e-01 4.2309644818305969e-01</leafValues></_>
        <_>
          <internalNodes>
            0 -1 41 2.1056891418993473e-03</internalNodes>
          <leafValues>
            -8.2946854829788208e-01 2.7322900295257568e-01</leafValues></_>
        <_>
          <internalNodes>
            0 -1 2 4.5248572714626789e-03</internalNodes>
          <leafValues>
            -6.8205052614212036e-01 4.6593612432479858e-01</leafValues></_></weakClassifiers></_>
    <!-- stage 2 -->
    <_>
      <maxWeakCount>5</maxWeakCount>
      <stageThreshold>-1.8846434354782104e+00</stageThreshold>
      <weakClassifiers>
        <_>
          <internalNodes>
            0 -1 9 1.4585579931735992e-01</internalNodes>
          <leafValues>
            -9.0057361125946045e-01 6.1290323734283447e-01</leafValues></_>
        <_>
          <internalNodes>
            0 -1 42 1.2231746222823858e-03</internalNodes>
          <leafValues>
            -7.8757745027542114e-01 2.5615519285202026e-01</leafValues></_>
        <_>
          <internalNodes>
            0 -1 46 9.3759328592568636e-04</internalNodes>
          <leafValues>
            -6.5209883451461792e-01 4.1489782929420471e-01</leafValues></_>
        <_>
          <internalNodes>
            0 -1 31 -7.4337184196338058e-04</internalNodes>
          <leafValues>
            -1. 2.1574576199054718e-01</leafValues></_>
        <_>
          <internalNodes>
            0 -1 33 2.4276118725538254e-02</internalNodes>
          <leafValues>
            2.3986072838306427e-01 -9.6935111284255981e-01</leafValues></_></weakClassifiers></_>
    <!-- stage 3 -->
    <_>
      <maxWeakCount>3</maxWeakCount>
      <stageThreshold>-1.4781624078750610e+00</stageThreshold>
      <weakClassifiers>
        <_>
          <internalNodes>
            0 -1 51 8.1666432321071625e-02</internalNodes>
          <leafValues>
            -9.0366089344024658e-01 3.8461539149284363e-01</leafValues></_>
        <_>
          <internalNodes>
            0 -1 45 -4.3346144957467914e-04</internalNodes>
          <leafValues>
            1.4019949734210968e-01 -8.3114647865295410e-01</leafValues></_>
        <_>
          <internalNodes>
            0 -1 28 5.5930269882082939e-03</internalNodes>
          <leafValues>
            -7.1470099687576294e-01 3.6089017987251282e-01</leafValues></_></weakClassifiers></_>
    <!-- stage 4 -->
    <_>
      <maxWeakCount>5</maxWeakCount>
      <stageThreshold>-2.0389029979705811e+00</stageThreshold>
      <weakClassifiers>
        <_>
          <internalNodes>
            0 -1 27 -7.9355776309967041e-02</internalNodes>
          <leafValues>
            -2.0833332836627960e-01 -9.2048931121826172e-01</leafValues></_>
        <_>
          <internalNodes>
            0 -1 24 6.3306814990937710e-04</internalNodes>
          <leafValues>
            -7.6945787668228149e-01 1.8447370827198029e-01</leafValues></_>
        <_>
          <internalNodes>
            0 -1 18 3.8459049537777901e-03</internalNodes>
          <leafValues>
            -5.1193141937255859e-01 4.9776601791381836e-01</leafValues></_>
        <_>
          <internalNodes>
            0 -1 44 -7.2730099782347679e-03</internalNodes>
          <leafValues>
            -8.9646017551422119e-01 2.8444024920463562e-01</leafValues></_>
        <_>
          <internalNodes>
            0 -1 30 -7.5214402750134468e-04</internalNodes>
          <leafValues>
            -8.3362072706222534e-01 2.9910504817962646e-01</leafValues></_></weakClassifiers></_>
    <!-- stage 5 -->
    <_>
      <maxWeakCount>5</maxWeakCount>
      <stageThreshold>-2.1114492416381836e+00</stageThreshold>
      <weakClassifiers>
        <_>
          <internalNodes>
            0 -1 3 1.8042084574699402e-01</internalNodes>
          <leafValues>
            -9.0097087621688843e-01 1.0638298094272614e-01</leafValues></_>
        <_>
          <internalNodes>
            0 -1 19 -6.2182650435715914e-04</internalNodes>
          <leafValues>
            1.6422349214553833e-01 -7.2207707166671753e-01</leafValues></_>
        <_>
          <internalNodes>
            0 -1 48 7.1906339144334197e-05</internalNodes>
          <leafValues>
            -8.3671534061431885e-01 1.9025397300720215e-01</leafValues></_>
        <_>
          <internalNodes>
            0 -1 35 2.2157318890094757e-03</internalNodes>
          <leafValues>
            1.9368046522140503e-01 -1.</leafValues></_>
        <_>
          <internalNodes>
            0 -1 36 -4.3432479724287987e-03</internalNodes>
          <leafValues>
            -1. 1.5463352203369141e-01</leafValues></_></weakClassifiers></_>
    <!-- stage 6 -->
    <_>
      <maxWeakCount>6</maxWeakCount>
      <stageThreshold>-2.1099321842193604e+00</stageThreshold>
      <weakClassifiers>
        <_>
          <internalNodes>
            0 -1 8 6.0743319988250732e-01</internalNodes>
          <leafValues>
            -8.8124412298202515e-01 7.5000000000000000e-01</leafValues></_>
        <_>
          <internalNodes>
            0 -1 20 8.1166485324501991e-04</internalNodes>
          <leafValues>
            -7.3460704088211060e-01 1.9460283219814301e-01</leafValues></_>
        <_>
          <internalNodes>
            0 -1 32 1.8974419217556715e-03</internalNodes>
          <leafValues>
            -6.2536787986755371e-01 3.7259939312934875e-01</leafValues></_>
        <_>
          <internalNodes>
            0 -1 52 -1.6028933459892869e-03</internalNodes>
          <leafValues>
            4.0858098864555359e-01 -5.6569862365722656e-01</leafValues></_>
        <_>
          <internalNodes>
            0 -1 26 -1.7440225929021835e-04</internalNodes>
          <leafValues>
            2.9245802760124207e-01 -7.4000298976898193e-01</leafValues></_>
        <_>
          <internalNodes>
            0 -1 14 3.2118053641170263e-03</internalNodes>
          <leafValues>
            -5.5261445045471191e-01 4.3902125954627991e-01</leafValues></_></weakClassifiers></_>
    <!-- stage 7 -->
    <_>
      <maxWeakCount>5</maxWeakCount>
      <stageThreshold>-1.9688398838043213e+00</stageThreshold>
      <weakClassifiers>
        <_>
          <internalNodes>
            0 -1 6 1.5890480950474739e-02</internalNodes>
          <leafValues>
            -9.1454732418060303e-01 -2.5531914830207825e-01</leafValues></_>
        <_>
          <internalNodes>
            0 -1 0 1.1292284354567528e-02</internalNodes>
          <leafValues>
            -7.1656668186187744e-01 7.8255929052829742e-02</leafValues></_>
        <_>
          <internalNodes>
            0 -1 43 1.0030127596110106e-03</internalNodes>
          <leafValues>
            -5.4001128673553467e-01 4.6413514018058777e-01</leafValues></_>
        <_>
          <internalNodes>
            0 -1 25 -3.7035144865512848e-02</internalNodes>
          <leafValues>
            -8.1784456968307495e-01 2.6399356126785278e-01</leafValues></_>
        <_>
          <internalNodes>
            0 -1 34 5.2739202510565519e-04</internalNodes>
          <leafValues>
            2.2530740499496460e-01 -9.8166930675506592e-01</leafValues></_></weakClassifiers></_>
    <!-- stage 8 -->
    <_>
      <maxWeakCount>6</maxWeakCount>
      <stageThreshold>-1.9154963493347168e+00</stageThreshold>
      <weakClassifiers>
        <_>
          <internalNodes>
            0 -1 13 4.4281727075576782e-01</internalNodes>
          <leafValues>
            -8.8457900285720825e-01 6.0000002384185791e-01</leafValues></_>
        <_>
          <internalNodes>
            0 -1 16 1.0182859841734171e-03</internalNodes>
          <leafValues>
            -7.8413194417953491e-01 3.5824831575155258e-02</leafValues></_>
        <_>
          <internalNodes>
            0 -1 10 -2.2349575161933899e-01</internalNodes>
          <leafValues>
            6.4083057641983032e-01 -3.7726381421089172e-01</leafValues></_>
        <_>
          <internalNodes>
            0 -1 37 5.2992807468399405e-04</internalNodes>
          <leafValues>
            -6.3049268722534180e-01 3.9126786589622498e-01</leafValues></_>
        <_>
          <internalNodes>
            0 -1 38 9.9678225815296173e-03</internalNodes>
          <leafValues>
            -4.4352748990058899e-01 4.7330036759376526e-01</leafValues></_>
        <_>
          <internalNodes>
            0 -1 39 -7.2877607308328152e-03</internalNodes>
          <leafValues>
            -8.3802235126495361e-01 2.8767073154449463e-01</leafValues></_></weakClassifiers></_>
    <!-- stage 9 -->
    <_>
      <maxWeakCount>5</maxWeakCount>
      <stageThreshold>-1.7293987274169922e+00</stageThreshold>
      <weakClassifiers>
        <_>
          <internalNodes>
            0 -1 1 4.9997991323471069e-01</internalNodes>
          <leafValues>
            -8.9220404624938965e-01 1.0526315867900848e-01</leafValues></_>
        <_>
          <internalNodes>
            0 -1 21 -1.0292527731508017e-03</internalNodes>
          <leafValues>
            1.2388002872467041e-01 -6.9380700588226318e-01</leafValues></_>
        <_>
          <internalNodes>
            0 -1 22 9.0261083096265793e-04</internalNodes>
          <leafValues>
            -5.0810962915420532e-01 3.7600022554397583e-01</leafValues></_>
        <_>
          <internalNodes>
            0 -1 40 -4.4714793330058455e-04</internalNodes>
          <leafValues>
            -8.6439341306686401e-01 2.4566963315010071e-01</leafValues></_>
        <_>
          <internalNodes>
            0 -1 23 8.4099955856800079e-03</internalNodes>
          <leafValues>
            2.8145149350166321e-01 -7.6505756378173828e-01</leafValues></_></weakClassifiers></_>
    <!-- stage 10 -->
    <_>
      <maxWeakCount>6</maxWeakCount>
      <stageThreshold>-1.7204525470733643e+00</stageThreshold>
      <weakClassifiers>
        <_>
          <internalNodes>
            0 -1 4 2.3836813867092133e-02</internalNodes>
          <leafValues>
            -8.7417840957641602e-01 6.6666668653488159e-01</leafValues></_>
        <_>
          <internalNodes>
            0 -1 7 1.4808501303195953e-01</internalNodes>
          <leafValues>
            -6.3589757680892944e-01 3.5979047417640686e-01</leafValues></_>
        <_>
          <internalNodes>
            0 -1 50 1.2123039923608303e-03</internalNodes>
          <leafValues>
            -6.2006616592407227e-01 3.9169695973396301e-01</leafValues></_>
        <_>
          <internalNodes>
            0 -1 29 2.3641050793230534e-03</internalNodes>
          <leafValues>
            1.7197646200656891e-01 -9.6900850534439087e-01</leafValues></_>
        <_>
          <internalNodes>
            0 -1 17 3.4309390932321548e-02</internalNodes>
          <leafValues>
            -3.6525332927703857e-01 5.0810611248016357e-01</leafValues></_>
        <_>
          <internalNodes>
            0 -1 5 -5.4099008440971375e-02</internalNodes>
          <leafValues>
            7.1434783935546875e-01 -2.7039298415184021e-01</leafValues></_></weakClassifiers></_></stages>
  <features>
    <_>
      <rects>
        <_>
          0 7 22 6 -1.</_>
        <_>
          0 10 22 3 2.</_></rects>
      <tilted>0</tilted></_>
    <_>
      <rects>
        <_>
          1 3 21 18 -1.</_>
        <_>
          8 3 7 18 3.</_></rects>
      <tilted>0</tilted></_>
    <_>
      <rects>
        <_>
          1 13 8 3 -1.</_>
        <_>
          5 13 4 3 2.</_></rects>
      <tilted>0</tilted></_>
    <_>
      <rects>
        <_>
          2 5 21 5 -1.</_>
        <_>
          9 5 7 5 3.</_></rects>
      <tilted>0</tilted></_>
    <_>
      <rects>
        <_>
          3 12 6 4 -1.</_>
        <_>
          3 12 3 2 2.</_>
        <_>
          6 14 3 2 2.</_></rects>
      <tilted>0</tilted></_>
    <_>
      <rects>
        <_>
          4 0 7 12 -1.</_>
        <_>
          4 6 7 6 2.</_></rects>
      <tilted>0</tilted></_>
    <_>
      <rects>
        <_>
          4 13 8 4 -1.</_>
        <_>
          4 13 4 2 2.</_>
        <_>
          8 15 4 2 2.</_></rects>
      <tilted>0</tilted></_>
    <_>
      <rects>
        <_>
          4 15 18 8 -1.</_>
        <_>
          10 15 6 8 3.</_></rects>
      <tilted>0</tilted></_>
    <_>
      <rects>
        <_>
          5 0 15 24 -1.</_>
        <_>
          5 8 15 8 3.</_></rects>
      <tilted>0</tilted></_>
    <_>
      <rects>
        <_>
          5 2 4 21 -1.</_>
        <_>
          5 9 4 7 3.</_></rects>
      <tilted>0</tilted></_>
    <_>
      <rects>
        <_>
          5 10 16 14 -1.</_>
        <_>
          5 17 16 7 2.</_></rects>
      <tilted>0</tilted></_>
    <_>
      <rects>
        <_>
          5 15 12 8 -1.</_>
        <_>
          5 19 12 4 2.</_></rects>
      <tilted>0</tilted></_>
    <_>
      <rects>
        <_>
          5 17 15 2 -1.</_>
        <_>
          10 17 5 2 3.</_></rects>
      <tilted>0</tilted></_>
    <_>
      <rects>
        <_>
          6 2 15 21 -1.</_>
        <_>
          6 9 15 7 3.</_></rects>
      <tilted>0</tilted></_>
    <_>
      <rects>
        <_>
          6 5 6 7 -1.</_>
        <_>
          8 5 2 7 3.</_></rects>
      <tilted>0</tilted></_>
    <_>
      <rects>
        <_>
          6 13 2 2 -1.</_>
        <_>
          6 13 1 1 2.</_>
        <_>
          7 14 1 1 2.</_></rects>
      <tilted>0</tilted></_>
    <_>
      <rects>
        <_>
          6 14 4 2 -1.</_>
        <_>
          6 14 2 1 2.</_>
        <_>
          8 15 2 1 2.</_></rects>
      <tilted>0</tilted></_>
    <_>
      <rects>
        <_>
          7 3 12 6 -1.</_>
        <_>
          7 6 12 3 2.</_></rects>
      <tilted>0</tilted></_>
    <_>
      <rects>
        <_>
          7 5 10 2 -1.</_>
        <_>
          7 6 10 1 2.</_></rects>
      <tilted>0</tilted></_>
    <_>
      <rects>
        <_>
          7 9 2 2 -1.</_>
        <_>
          7 9 1 1 2.</_>
        <_>
          8 10 1 1 2.</_></rects>
      <tilted>0</tilted></_>
    <_>
      <rects>
        <_>
          7 13 2 2 -1.</_>
        <_>
          7 14 2 1 2.</_></rects>
      <tilted>0</tilted></_>
    <_>
      <rects>
        <_>
          7 13 4 2 -1.</_>
        <_>
          7 13 2 1 2.</_>
        <_>
          9 14 2 1 2.</_></rects>
      <tilted>0</tilted></_>
    <_>
      <rects>
        <_>
          8 6 1 4 -1.</_>
        <_>
          8 8 1 2 2.</_></rects>
      <tilted>0</tilted></_>
    <_>
      <rects>
        <_>
          8 9 10 10 -1.</_>
        <_>
          8 9 5 5 2.</_>
        <_>
          13 14 5 5 2.</_></rects>
      <tilted>0</tilted></_>
    <_>
      <rects>
        <_>
          8 14 1 3 -1.</_>
        <_>
          8 15 1 1 3.</_></rects>
      <tilted>0</tilted></_>
    <_>
      <rects>
        <_>
          9 3 5 18 -1.</_>
        <_>
          9 12 5 9 2.</_></rects>
      <tilted>0</tilted></_>
    <_>
      <rects>
        <_>
          9 10 9 2 -1.</_>
        <_>
          9 11 9 1 2.</_></rects>
      <tilted>0</tilted></_>
    <_>
      <rects>
        <_>
          9 15 10 8 -1.</_>
        <_>
          9 19 10 4 2.</_></rects>
      <tilted>0</tilted></_>
    <_>
      <rects>
        <_>
          10 2 6 10 -1.</_>
        <_>
          10 2 3 5 2.</_>
        <_>
          13 7 3 5 2.</_></rects>
      <tilted>0</tilted></_>
    <_>
      <rects>
        <_>
          10 9 4 5 -1.</_>
        <_>
          12 9 2 5 2.</_></rects>
      <tilted>0</tilted></_>
    <_>
      <rects>
        <_>
          10 11 10 2 -1.</_>
        <_>
          15 11 5 2 2.</_></rects>
      <tilted>0</tilted></_>
    <_>
      <rects>
        <_>
          10 13 7 2 -1.</_>
        <_>
          10 14 7 1 2.</_></rects>
      <tilted>0</tilted></_>
    <_>
      <rects>
        <_>
          11 2 3 6 -1.</_>
        <_>
          11 5 3 3 2.</_></rects>
      <tilted>0</tilted></_>
    <_>
      <rects>
        <_>
          11 3 4 20 -1.</_>
        <_>
          11 13 4 10 2.</_></rects>
      <tilted>0</tilted></_>
    <_>
      <rects>
        <_>
          11 8 2 4 -1.</_>
        <_>
          11 10 2 2 2.</_></rects>
      <tilted>0</tilted></_>
    <_>
      <rects>
        <_>
          11 8 4 8 -1.</_>
        <_>
          11 8 2 4 2.</_>
        <_>
          13 12 2 4 2.</_></rects>
      <tilted>0</tilted></_>
    <_>
      <rects>
        <_>
          11 9 4 8 -1.</_>
        <_>
          11 9 2 4 2.</_>
        <_>
          13 13 2 4 2.</_></rects>
      <tilted>0</tilted></_>
    <_>
      <rects>
        <_>
          11 9 8 1 -1.</_>
        <_>
          15 9 4 1 2.</_></rects>
      <tilted>0</tilted></_>
    <_>
      <rects>
        <_>
          11 16 8 6 -1.</_>
        <_>
          11 16 4 3 2.</_>
        <_>
          15 19 4 3 2.</_></rects>
      <tilted>0</tilted></_>
    <_>
      <rects>
        <_>
          12 7 6 10 -1.</_>
        <_>
          12 7 3 5 2.</_>
        <_>
          15 12 3 5 2.</_></rects>
      <tilted>0</tilted></_>
    <_>
      <rects>
        <_>
          12 11 2 3 -1.</_>
        <_>
          12 12 2 1 3.</_></rects>
      <tilted>0</tilted></_>
    <_>
      <rects>
        <_>
          12 13 2 9 -1.</_>
        <_>
          12 16 2 3 3.</_></rects>
      <tilted>0</tilted></_>
    <_>
      <rects>
        <_>
          12 16 4 1 -1.</_>
        <_>
          14 16 2 1 2.</_></rects>
      <tilted>0</tilted></_>
    <_>
      <rects>
        <_>
          12 16 2 2 -1.</_>
        <_>
          12 17 2 1 2.</_></rects>
      <tilted>0</tilted></_>
    <_>
      <rects>
        <_>
          13 8 3 10 -1.</_>
        <_>
          13 13 3 5 2.</_></rects>
      <tilted>0</tilted></_>
    <_>
      <rects>
        <_>
          13 17 2 2 -1.</_>
        <_>
          13 17 1 1 2.</_>
        <_>
          14 18 1 1 2.</_></rects>
      <tilted>0</tilted></_>
    <_>
      <rects>
        <_>
          14 6 3 2 -1.</_>
        <_>
          14 7 3 1 2.</_></rects>
      <tilted>0</tilted></_>
    <_>
      <rects>
        <_>
          14 9 6 2 -1.</_>
        <_>
          14 9 3 1 2.</_>
        <_>
          17 10 3 1 2.</_></rects>
      <tilted>0</tilted></_>
    <_>
      <rects>
        <_>
          14 15 3 2 -1.</_>
        <_>
          15 15 1 2 3.</_></rects>
      <tilted>0</tilted></_>
    <_>
      <rects>
        <_>
          15 15 2 2 -1.</_>
        <_>
          15 15 1 1 2.</_>
        <_>
          16 16 1 1 2.</_></rects>
      <tilted>0</tilted></_>
    <_>
      <rects>
        <_>
          16 7 1 6 -1.</_>
        <_>
          16 9 1 2 3.</_></rects>
      <tilted>0</tilted></_>
    <_>
      <rects>
        <_>
          17 5 3 15 -1.</_>
        <_>
          17 10 3 5 3.</_></rects>
      <tilted>0</tilted></_>
    <_>
      <rects>
        <_>
          17 13 1 4 -1.</_>
        <_>
          17 15 1 2 2.</_></rects>
      <tilted>0</tilted></_></features></cascade>
</opencv_storage>