<?xml version="1.0"?>
<opencv_storage>
<cascade>
  <stageType>BOOST</stageType>
  <featureType>HAAR</featureType>
  <height>24</height>
  <width>24</width>
  <stageParams>
    <boostType>GAB</boostType>
    <minHitRate>9.9900001287460327e-01</minHitRate>
    <maxFalseAlarm>1.0000000149011612e-01</maxFalseAlarm>
    <weightTrimRate>9.4999999999999996e-01</weightTrimRate>
    <maxDepth>1</maxDepth>
    <maxWeakCount>100</maxWeakCount></stageParams>
  <featureParams>
    <maxCatCount>0</maxCatCount>
    <featSize>1</featSize>
    <mode>BASIC</mode></featureParams>
  <stageNum>7</stageNum>
  <stages>
    <!-- stage 0 -->
    <_>
      <maxWeakCount>1</maxWeakCount>
      <stageThreshold>1.</stageThreshold>
      <weakClassifiers>
        <_>
          <internalNodes>
            0 -1 2 -8.1751048564910889e-02</internalNodes>
          <leafValues>
            1. -1.</leafValues></_></weakClassifiers></_>
    <!-- stage 1 -->
    <_>
      <maxWeakCount>1</maxWeakCount>
      <stageThreshold>9.6969699859619141e-01</stageThreshold>
      <weakClassifiers>
        <_>
          <internalNodes>
            0 -1 5 3.5093896090984344e-02</internalNodes>
          <leafValues>
            -1. 9.6969699859619141e-01</leafValues></_></weakClassifiers></_>
    <!-- stage 2 -->
    <_>
      <maxWeakCount>1</maxWeakCount>
      <stageThreshold>9.6969699859619141e-01</stageThreshold>
      <weakClassifiers>
        <_>
          <internalNodes>
            0 -1 0 6.0825962573289871e-03</internalNodes>
          <leafValues>
            -1. 9.6969699859619141e-01</leafValues></_></weakClassifiers></_>
    <!-- stage 3 -->
    <_>
      <maxWeakCount>2</maxWeakCount>
      <stageThreshold>2.9411831870675087e-02</stageThreshold>
      <weakClassifiers>
        <_>
          <internalNodes>
            0 -1 6 9.5045134425163269e-02</internalNodes>
          <leafValues>
            -9.6969699859619141e-01 1.</leafValues></_>
        <_>
          <internalNodes>
            0 -1 8 5.9223562479019165e-02</internalNodes>
          <leafValues>
            -9.7058814764022827e-01 1.</leafValues></_></weakClassifiers></_>
    <!-- stage 4 -->
    <_>
      <maxWeakCount>3</maxWeakCount>
      <stageThreshold>9.3520170450210571e-01</stageThreshold>
      <weakClassifiers>
        <_>
          <internalNodes>
            0 -1 12 3.0437074601650238e-02</internalNodes>
          <leafValues>
            -8.7878787517547607e-01 9.5348834991455078e-01</leafValues></_>
        <_>
          <internalNodes>
            0 -1 9 1.9358016550540924e-02</internalNodes>
          <leafValues>
            -9.0656292438507080e-01 9.2928469181060791e-01</leafValues></_>
        <_>
          <internalNodes>
            0 -1 3 4.1353347478434443e-04</internalNodes>
          <leafValues>
            -9.4757139682769775e-01 9.2470800876617432e-01</leafValues></_></weakClassifiers></_>
    <!-- stage 5 -->
    <_>
      <maxWeakCount>3</maxWeakCount>
      <stageThreshold>7.7833390235900879e-01</stageThreshold>
      <weakClassifiers>
        <_>
          <internalNodes>
            0 -1 7 7.5831422582268715e-03</internalNodes>
          <leafValues>
            -9.6666663885116577e-01 9.1111111640930176e-01</leafValues></_>
        <_>
          <internalNodes>
            0 -1 10 -6.4951613545417786e-02</internalNodes>
          <leafValues>
            9.1787046194076538e-01 -9.3351757526397705e-01</leafValues></_>
        <_>
          <internalNodes>
            0 -1 4 -2.0210159709677100e-04</internalNodes>
          <leafValues>
            8.2713013887405396e-01 -9.2825847864151001e-01</leafValues></_></weakClassifiers></_>
    <!-- stage 6 -->
    <_>
      <maxWeakCount>3</maxWeakCount>
      <stageThreshold>7.7725768089294434e-01</stageThreshold>
      <weakClassifiers>
        <_>
          <internalNodes>
            0 -1 11 -2.9236436603241600e-05</internalNodes>
          <leafValues>
            9.1044777631759644e-01 -9.3442624807357788e-01</leafValues></_>
        <_>
          <internalNodes>
            0 -1 1 3.8382690399885178e-04</internalNodes>
          <leafValues>
            -9.7551375627517700e-01 8.1791698932647705e-01</leafValues></_>
        <_>
          <internalNodes>
            0 -1 13 -4.0169440209865570e-02</internalNodes>
          <leafValues>
            8.9376693964004517e-01 -8.9996176958084106e-01</leafValues></_></weakClassifiers></_></stages>
  <features>
    <_>
      <rects>
        <_>
          0 0 22 1 -1.</_>
        <_>
          11 0 11 1 2.</_></rects>
      <tilted>0</tilted></_>
    <_>
      <rects>
        <_>
          0 6 6 18 -1.</_>
        <_>
          0 12 6 6 3.</_></rects>
      <tilted>0</tilted></_>
    <_>
      <rects>
        <_>
          0 10 23 12 -1.</_>
        <_>
          0 14 23 4 3.</_></rects>
      <tilted>0</tilted></_>
    <_>
      <rects>
        <_>
          1 10 2 7 -1.</_>
        <_>
          2 10 1 7 2.</_></rects>
      <tilted>0</tilted></_>
    <_>
      <rects>
        <_>
          3 10 10 2 -1.</_>
        <_>
          3 11 10 1 2.</_></rects>
      <tilted>0</tilted></_>
    <_>
      <rects>
        <_>
          5 3 16 6 -1.</_>
        <_>
          5 3 8 3 2.</_>
        <_>
          13 6 8 3 2.</_></rects>
      <tilted>0</tilted></_>
    <_>
      <rects>
        <_>
          6 18 18 5 -1.</_>
        <_>
          12 18 6 5 3.</_></rects>
      <tilted>0</tilted></_>
    <_>
      <rects>
        <_>
          7 4 6 6 -1.</_>
        <_>
          9 4 2 6 3.</_></rects>
      <tilted>0</tilted></_>
    <_>
      <rects>
        <_>
          7 18 15 5 -1.</_>
        <_>
          12 18 5 5 3.</_></rects>
      <tilted>0</tilted></_>
    <_>
      <rects>
        <_>
          9 0 13 9 -1.</_>
        <_>
          9 3 13 3 3.</_></rects>
      <tilted>0</tilted></_>
    <_>
      <rects>
        <_>
          9 2 12 10 -1.</_>
        <_>
          13 2 4 10 3.</_></rects>
      <tilted>0</tilted></_>
    <_>
      <rects>
        <_>
          9 16 4 2 -1.</_>
        <_>
          9 17 4 1 2.</_></rects>
      <tilted>0</tilted></_>
    <_>
      <rects>
        <_>
          18 6 6 14 -1.</_>
        <_>
          18 6 3 7 2.</_>
        <_>
          21 13 3 7 2.</_></rects>
      <tilted>0</tilted></_>
    <_>
      <rects>
        <_>
          18 10 3 12 -1.</_>
        <_>
          18 14 3 4 3.</_></rects>
      <tilted>0</tilted></_></features></cascade>
</opencv_storage>
