<?xml version="1.0"?>
<opencv_storage>
<cascade>
  <stageType>BOOST</stageType>
  <featureType>HAAR</featureType>
  <height>24</height>
  <width>24</width>
  <stageParams>
    <boostType>GAB</boostType>
    <minHitRate>9.9500000476837158e-01</minHitRate>
    <maxFalseAlarm>5.0000000000000000e-01</maxFalseAlarm>
    <weightTrimRate>9.4999998807907104e-01</weightTrimRate>
    <maxDepth>1</maxDepth>
    <maxWeakCount>100</maxWeakCount></stageParams>
  <featureParams>
    <maxCatCount>0</maxCatCount>
    <featSize>1</featSize>
    <mode>BASIC</mode></featureParams>
  <stageNum>10</stageNum>
  <stages>
    <!-- stage 0 -->
    <_>
      <maxWeakCount>3</maxWeakCount>
      <stageThreshold>-1.5661829710006714e+00</stageThreshold>
      <weakClassifiers>
        <_>
          <internalNodes>
            0 -1 12 6.5459877252578735e-02</internalNodes>
          <leafValues>
            -9.8642688989639282e-01 4.1365462541580200e-01</leafValues></_>
        <_>
          <internalNodes>
            0 -1 8 2.6426266878843307e-02</internalNodes>
          <leafValues>
            -9.5654386281967163e-01 3.8681796193122864e-01</leafValues></_>
        <_>
          <internalNodes>
            0 -1 22 4.9917314201593399e-02</internalNodes>
          <leafValues>
            -9.6657413244247437e-01 3.9551520347595215e-01</leafValues></_></weakClassifiers></_>
    <!-- stage 1 -->
    <_>
      <maxWeakCount>3</maxWeakCount>
      <stageThreshold>-1.5675729513168335e+00</stageThreshold>
      <weakClassifiers>
        <_>
          <internalNodes>
            0 -1 18 2.8841271996498108e-02</internalNodes>
          <leafValues>
            -9.3984961509704590e-01 5.1824820041656494e-01</leafValues></_>
        <_>
          <internalNodes>
            0 -1 3 2.6114862412214279e-02</internalNodes>
          <leafValues>
            -9.0889197587966919e-01 3.5835751891136169e-01</leafValues></_>
        <_>
          <internalNodes>
            0 -1 7 6.7201957106590271e-02</internalNodes>
          <leafValues>
            -9.8608082532882690e-01 3.5376095771789551e-01</leafValues></_></weakClassifiers></_>
    <!-- stage 2 -->
    <_>
      <maxWeakCount>3</maxWeakCount>
      <stageThreshold>-1.6727669239044189e+00</stageThreshold>
      <weakClassifiers>
        <_>
          <internalNodes>
            0 -1 19 4.1192065924406052e-02</internalNodes>
          <leafValues>
            -9.5284605026245117e-01 1.1013215780258179e-01</leafValues></_>
        <_>
          <internalNodes>
            0 -1 21 8.6175590753555298e-02</internalNodes>
          <leafValues>
            -9.6914684772491455e-01 2.4460077285766602e-01</leafValues></_>
        <_>
          <internalNodes>
            0 -1 35 1.7542926594614983e-02</internalNodes>
          <leafValues>
            -8.1375217437744141e-01 5.6613045930862427e-01</leafValues></_></weakClassifiers></_>
    <!-- stage 3 -->
    <_>
      <maxWeakCount>4</maxWeakCount>
      <stageThreshold>-2.2322492599487305e+00</stageThreshold>
      <weakClassifiers>
        <_>
          <internalNodes>
            0 -1 30 2.6205724105238914e-02</internalNodes>
          <leafValues>
            -9.4006198644638062e-01 -2.5597268342971802e-01</leafValues></_>
        <_>
          <internalNodes>
            0 -1 6 7.7213115990161896e-02</internalNodes>
          <leafValues>
            -8.1764531135559082e-01 3.2572415471076965e-01</leafValues></_>
        <_>
          <internalNodes>
            0 -1 20 -9.0413028374314308e-03</internalNodes>
          <leafValues>
            3.6873868107795715e-01 -7.4968791007995605e-01</leafValues></_>
        <_>
          <internalNodes>
            0 -1 2 1.2090649761375971e-05</internalNodes>
          <leafValues>
            2.7514582872390747e-01 -9.9486380815505981e-01</leafValues></_></weakClassifiers></_>
    <!-- stage 4 -->
    <_>
      <maxWeakCount>1</maxWeakCount>
      <stageThreshold>-5.2941179275512695e-01</stageThreshold>
      <weakClassifiers>
        <_>
          <internalNodes>
            0 -1 2 -1.0387586371507496e-05</internalNodes>
          <leafValues>
            -1. -5.2941179275512695e-01</leafValues></_></weakClassifiers></_>
    <!-- stage 5 -->
    <_>
      <maxWeakCount>5</maxWeakCount>
      <stageThreshold>-2.3454506397247314e+00</stageThreshold>
      <weakClassifiers>
        <_>
          <internalNodes>
            0 -1 34 2.6854734867811203e-02</internalNodes>
          <leafValues>
            -9.3951892852783203e-01 -2.4475523829460144e-01</leafValues></_>
        <_>
          <internalNodes>
            0 -1 37 1.6406219452619553e-02</internalNodes>
          <leafValues>
            -7.4214571714401245e-01 2.7753856778144836e-01</leafValues></_>
        <_>
          <internalNodes>
            0 -1 5 9.0392448008060455e-02</internalNodes>
          <leafValues>
            -7.4154478311538696e-01 3.7141016125679016e-01</leafValues></_>
        <_>
          <internalNodes>
            0 -1 24 -1.7227489501237869e-02</internalNodes>
          <leafValues>
            2.6832428574562073e-01 -9.8975688219070435e-01</leafValues></_>
        <_>
          <internalNodes>
            0 -1 14 9.5212291926145554e-03</internalNodes>
          <leafValues>
            -8.8532906770706177e-01 3.6528325080871582e-01</leafValues></_></weakClassifiers></_>
    <!-- stage 6 -->
    <_>
      <maxWeakCount>5</maxWeakCount>
      <stageThreshold>-2.1853277683258057e+00</stageThreshold>
      <weakClassifiers>
        <_>
          <internalNodes>
            0 -1 36 2.3517144843935966e-02</internalNodes>
          <leafValues>
            -9.3831974267959595e-01 -4.1866666078567505e-01</leafValues></_>
        <_>
          <internalNodes>
            0 -1 39 7.4837668798863888e-03</internalNodes>
          <leafValues>
            -7.7505236864089966e-01 8.6471423506736755e-02</leafValues></_>
        <_>
          <internalNodes>
            0 -1 27 2.8428015866666101e-05</internalNodes>
          <leafValues>
            -7.3735505342483521e-01 3.1858569383621216e-01</leafValues></_>
        <_>
          <internalNodes>
            0 -1 11 5.3687021136283875e-02</internalNodes>
          <leafValues>
            -9.0600579977035522e-01 2.6415392756462097e-01</leafValues></_>
        <_>
          <internalNodes>
            0 -1 23 3.9487976580858231e-02</internalNodes>
          <leafValues>
            -8.6027842760086060e-01 3.4897178411483765e-01</leafValues></_></weakClassifiers></_>
    <!-- stage 7 -->
    <_>
      <maxWeakCount>6</maxWeakCount>
      <stageThreshold>-1.8754577636718750e+00</stageThreshold>
      <weakClassifiers>
        <_>
          <internalNodes>
            0 -1 40 6.6279187798500061e-02</internalNodes>
          <leafValues>
            -9.0350592136383057e-01 5.7471264153718948e-02</leafValues></_>
        <_>
          <internalNodes>
            0 -1 34 1.9526327028870583e-02</internalNodes>
          <leafValues>
            -7.6520931720733643e-01 1.1713615059852600e-01</leafValues></_>
        <_>
          <internalNodes>
            0 -1 4 5.7034001656575128e-05</internalNodes>
          <leafValues>
            1.3476282358169556e-01 -9.7247284650802612e-01</leafValues></_>
        <_>
          <internalNodes>
            0 -1 13 8.3366082981228828e-03</internalNodes>
          <leafValues>
            -6.9861614704132080e-01 2.8092089295387268e-01</leafValues></_>
        <_>
          <internalNodes>
            0 -1 17 -1.0449186898767948e-02</internalNodes>
          <leafValues>
            2.4480149149894714e-01 -1.</leafValues></_>
        <_>
          <internalNodes>
            0 -1 9 3.5519495606422424e-02</internalNodes>
          <leafValues>
            -7.5390863418579102e-01 3.3719953894615173e-01</leafValues></_></weakClassifiers></_>
    <!-- stage 8 -->
    <_>
      <maxWeakCount>6</maxWeakCount>
      <stageThreshold>-2.4492943286895752e+00</stageThreshold>
      <weakClassifiers>
        <_>
          <internalNodes>
            0 -1 28 3.9064534939825535e-04</internalNodes>
          <leafValues>
            -9.4913291931152344e-01 -5.6738770008087158e-01</leafValues></_>
        <_>
          <internalNodes>
            0 -1 26 7.9606622457504272e-03</internalNodes>
          <leafValues>
            -8.2301557064056396e-01 -7.4421212077140808e-02</leafValues></_>
        <_>
          <internalNodes>
            0 -1 31 -4.3921993346884847e-04</internalNodes>
          <leafValues>
            -9.1569483280181885e-01 1.8061089515686035e-01</leafValues></_>
        <_>
          <internalNodes>
            0 -1 38 2.4743244051933289e-02</internalNodes>
          <leafValues>
            -8.6992079019546509e-01 2.0364886522293091e-01</leafValues></_>
        <_>
          <internalNodes>
            0 -1 16 -5.5680334568023682e-02</internalNodes>
          <leafValues>
            -9.4331890344619751e-01 2.1531222760677338e-01</leafValues></_>
        <_>
          <internalNodes>
            0 -1 33 -3.7014682311564684e-04</internalNodes>
          <leafValues>
            1.6431283950805664e-01 -9.2900639772415161e-01</leafValues></_></weakClassifiers></_>
    <!-- stage 9 -->
    <_>
      <maxWeakCount>7</maxWeakCount>
      <stageThreshold>-2.1443176269531250e+00</stageThreshold>
      <weakClassifiers>
        <_>
          <internalNodes>
            0 -1 29 3.2383512007072568e-05</internalNodes>
          <leafValues>
            -9.5028066635131836e-01 -6.1823362112045288e-01</leafValues></_>
        <_>
          <internalNodes>
            0 -1 32 4.9881768063642085e-05</internalNodes>
          <leafValues>
            -7.1271127462387085e-01 4.7449864447116852e-02</leafValues></_>
        <_>
          <internalNodes>
            0 -1 0 7.5869815191254020e-05</internalNodes>
          <leafValues>
            1.4173968136310577e-01 -9.0409582853317261e-01</leafValues></_>
        <_>
          <internalNodes>
            0 -1 1 1.4888528312440030e-05</internalNodes>
          <leafValues>
            1.4964473247528076e-01 -1.</leafValues></_>
        <_>
          <internalNodes>
            0 -1 10 -1.0235395282506943e-02</internalNodes>
          <leafValues>
            -8.8634502887725830e-01 2.1154770255088806e-01</leafValues></_>
        <_>
          <internalNodes>
            0 -1 15 -1.4514047652482986e-02</internalNodes>
          <leafValues>
            2.3972636461257935e-01 -8.2899129390716553e-01</leafValues></_>
        <_>
          <internalNodes>
            0 -1 25 -2.2990778088569641e-02</internalNodes>
          <leafValues>
            1.5259400010108948e-01 -9.1542756557464600e-01</leafValues></_></weakClassifiers></_></stages>
  <features>
    <_>
      <rects>
        <_>
          0 0 2 4 -1.</_>
        <_>
          0 2 2 2 2.</_></rects>
      <tilted>0</tilted></_>
    <_>
      <rects>
        <_>
          0 0 3 3 -1.</_>
        <_>
          0 1 3 1 3.</_></rects>
      <tilted>0</tilted></_>
    <_>
      <rects>
        <_>
          0 0 4 2 -1.</_>
        <_>
          0 1 4 1 2.</_></rects>
      <tilted>0</tilted></_>
    <_>
      <rects>
        <_>
          0 0 8 10 -1.</_>
        <_>
          0 0 4 5 2.</_>
        <_>
          4 5 4 5 2.</_></rects>
      <tilted>0</tilted></_>
    <_>
      <rects>
        <_>
          0 0 5 2 -1.</_>
        <_>
          0 1 5 1 2.</_></rects>
      <tilted>0</tilted></_>
    <_>
      <rects>
        <_>
          0 4 8 15 -1.</_>
        <_>
          4 4 4 15 2.</_></rects>
      <tilted>0</tilted></_>
    <_>
      <rects>
        <_>
          0 4 24 2 -1.</_>
        <_>
          8 4 8 2 3.</_></rects>
      <tilted>0</tilted></_>
    <_>
      <rects>
        <_>
          0 5 12 13 -1.</_>
        <_>
          4 5 4 13 3.</_></rects>
      <tilted>0</tilted></_>
    <_>
      <rects>
        <_>
          0 5 24 1 -1.</_>
        <_>
          8 5 8 1 3.</_></rects>
      <tilted>0</tilted></_>
    <_>
      <rects>
        <_>
          0 5 24 2 -1.</_>
        <_>
          8 5 8 2 3.</_></rects>
      <tilted>0</tilted></_>
    <_>
      <rects>
        <_>
          0 12 18 1 -1.</_>
        <_>
          9 12 9 1 2.</_></rects>
      <tilted>0</tilted></_>
    <_>
      <rects>
        <_>
          1 6 9 11 -1.</_>
        <_>
          4 6 3 11 3.</_></rects>
      <tilted>0</tilted></_>
    <_>
      <rects>
        <_>
          1 7 9 10 -1.</_>
        <_>
          4 7 3 10 3.</_></rects>
      <tilted>0</tilted></_>
    <_>
      <rects>
        <_>
          2 16 8 5 -1.</_>
        <_>
          6 16 4 5 2.</_></rects>
      <tilted>0</tilted></_>
    <_>
      <rects>
        <_>
          3 2 4 12 -1.</_>
        <_>
          3 8 4 6 2.</_></rects>
      <tilted>0</tilted></_>
    <_>
      <rects>
        <_>
          3 3 14 14 -1.</_>
        <_>
          3 3 7 7 2.</_>
        <_>
          10 10 7 7 2.</_></rects>
      <tilted>0</tilted></_>
    <_>
      <rects>
        <_>
          3 4 11 12 -1.</_>
        <_>
          3 10 11 6 2.</_></rects>
      <tilted>0</tilted></_>
    <_>
      <rects>
        <_>
          4 7 10 7 -1.</_>
        <_>
          9 7 5 7 2.</_></rects>
      <tilted>0</tilted></_>
    <_>
      <rects>
        <_>
          4 9 4 12 -1.</_>
        <_>
          4 9 2 6 2.</_>
        <_>
          6 15 2 6 2.</_></rects>
      <tilted>0</tilted></_>
    <_>
      <rects>
        <_>
          5 0 1 24 -1.</_>
        <_>
          5 8 1 8 3.</_></rects>
      <tilted>0</tilted></_>
    <_>
      <rects>
        <_>
          5 12 1 12 -1.</_>
        <_>
          5 18 1 6 2.</_></rects>
      <tilted>0</tilted></_>
    <_>
      <rects>
        <_>
          6 0 10 12 -1.</_>
        <_>
          6 4 10 4 3.</_></rects>
      <tilted>0</tilted></_>
    <_>
      <rects>
        <_>
          6 1 11 9 -1.</_>
        <_>
          6 4 11 3 3.</_></rects>
      <tilted>0</tilted></_>
    <_>
      <rects>
        <_>
          6 1 12 6 -1.</_>
        <_>
          6 4 12 3 2.</_></rects>
      <tilted>0</tilted></_>
    <_>
      <rects>
        <_>
          6 4 10 10 -1.</_>
        <_>
          6 9 10 5 2.</_></rects>
      <tilted>0</tilted></_>
    <_>
      <rects>
        <_>
          6 4 11 10 -1.</_>
        <_>
          6 9 11 5 2.</_></rects>
      <tilted>0</tilted></_>
    <_>
      <rects>
        <_>
          7 2 16 2 -1.</_>
        <_>
          7 3 16 1 2.</_></rects>
      <tilted>0</tilted></_>
    <_>
      <rects>
        <_>
          7 6 6 6 -1.</_>
        <_>
          7 6 3 3 2.</_>
        <_>
          10 9 3 3 2.</_></rects>
      <tilted>0</tilted></_>
    <_>
      <rects>
        <_>
          7 10 4 4 -1.</_>
        <_>
          9 10 2 4 2.</_></rects>
      <tilted>0</tilted></_>
    <_>
      <rects>
        <_>
          7 10 4 5 -1.</_>
        <_>
          9 10 2 5 2.</_></rects>
      <tilted>0</tilted></_>
    <_>
      <rects>
        <_>
          7 12 2 12 -1.</_>
        <_>
          7 16 2 4 3.</_></rects>
      <tilted>0</tilted></_>
    <_>
      <rects>
        <_>
          8 10 4 3 -1.</_>
        <_>
          10 10 2 3 2.</_></rects>
      <tilted>0</tilted></_>
    <_>
      <rects>
        <_>
          9 7 5 2 -1.</_>
        <_>
          9 8 5 1 2.</_></rects>
      <tilted>0</tilted></_>
    <_>
      <rects>
        <_>
          10 3 1 10 -1.</_>
        <_>
          10 8 1 5 2.</_></rects>
      <tilted>0</tilted></_>
    <_>
      <rects>
        <_>
          10 4 10 4 -1.</_>
        <_>
          10 4 5 2 2.</_>
        <_>
          15 6 5 2 2.</_></rects>
      <tilted>0</tilted></_>
    <_>
      <rects>
        <_>
          11 2 8 8 -1.</_>
        <_>
          11 2 4 4 2.</_>
        <_>
          15 6 4 4 2.</_></rects>
      <tilted>0</tilted></_>
    <_>
      <rects>
        <_>
          11 6 12 2 -1.</_>
        <_>
          15 6 4 2 3.</_></rects>
      <tilted>0</tilted></_>
    <_>
      <rects>
        <_>
          13 3 2 6 -1.</_>
        <_>
          13 5 2 2 3.</_></rects>
      <tilted>0</tilted></_>
    <_>
      <rects>
        <_>
          14 0 5 15 -1.</_>
        <_>
          14 5 5 5 3.</_></rects>
      <tilted>0</tilted></_>
    <_>
      <rects>
        <_>
          14 3 2 4 -1.</_>
        <_>
          14 5 2 2 2.</_></rects>
      <tilted>0</tilted></_>
    <_>
      <rects>
        <_>
          14 9 9 5 -1.</_>
        <_>
          17 9 3 5 3.</_></rects>
      <tilted>0</tilted></_></features></cascade>
</opencv_storage>
