<?xml version="1.0"?>
<opencv_storage>
<cascade>
  <stageType>BOOST</stageType>
  <featureType>HAAR</featureType>
  <height>20</height>
  <width>20</width>
  <stageParams>
    <boostType>GAB</boostType>
    <minHitRate>9.9900001287460327e-01</minHitRate>
    <maxFalseAlarm>4.0000000596046448e-01</maxFalseAlarm>
    <weightTrimRate>9.4999999999999996e-01</weightTrimRate>
    <maxDepth>1</maxDepth>
    <maxWeakCount>100</maxWeakCount></stageParams>
  <featureParams>
    <maxCatCount>0</maxCatCount>
    <featSize>1</featSize>
    <mode>BASIC</mode></featureParams>
  <stageNum>18</stageNum>
  <stages>
    <!-- stage 0 -->
    <_>
      <maxWeakCount>2</maxWeakCount>
      <stageThreshold>-5.9387847781181335e-02</stageThreshold>
      <weakClassifiers>
        <_>
          <internalNodes>
            0 -1 27 3.2620422542095184e-02</internalNodes>
          <leafValues>
            -9.9152541160583496e-01 9.1758239269256592e-01</leafValues></_>
        <_>
          <internalNodes>
            0 -1 23 -5.4656863212585449e-02</internalNodes>
          <leafValues>
            9.3213754892349243e-01 -9.2311865091323853e-01</leafValues></_></weakClassifiers></_>
    <!-- stage 1 -->
    <_>
      <maxWeakCount>2</maxWeakCount>
      <stageThreshold>-3.9963576942682266e-02</stageThreshold>
      <weakClassifiers>
        <_>
          <internalNodes>
            0 -1 43 7.2268135845661163e-03</internalNodes>
          <leafValues>
            -9.3991416692733765e-01 8.6920982599258423e-01</leafValues></_>
        <_>
          <internalNodes>
            0 -1 57 -3.4064237028360367e-02</internalNodes>
          <leafValues>
            8.9995056390762329e-01 -8.3257073163986206e-01</leafValues></_></weakClassifiers></_>
    <!-- stage 2 -->
    <_>
      <maxWeakCount>3</maxWeakCount>
      <stageThreshold>-7.5319218635559082e-01</stageThreshold>
      <weakClassifiers>
        <_>
          <internalNodes>
            0 -1 25 -1.9018789753317833e-03</internalNodes>
          <leafValues>
            7.6781004667282104e-01 -8.6425340175628662e-01</leafValues></_>
        <_>
          <internalNodes>
            0 -1 45 4.3044976890087128e-02</internalNodes>
          <leafValues>
            -7.2152709960937500e-01 8.9707762002944946e-01</leafValues></_>
        <_>
          <internalNodes>
            0 -1 3 -1.3495741412043571e-02</internalNodes>
          <leafValues>
            8.3258831501007080e-01 -7.2869431972503662e-01</leafValues></_></weakClassifiers></_>
    <!-- stage 3 -->
    <_>
      <maxWeakCount>4</maxWeakCount>
      <stageThreshold>-1.5396908521652222e+00</stageThreshold>
      <weakClassifiers>
        <_>
          <internalNodes>
            0 -1 12 -7.5698271393775940e-03</internalNodes>
          <leafValues>
            8.2890856266021729e-01 -6.9348657131195068e-01</leafValues></_>
        <_>
          <internalNodes>
            0 -1 56 -1.4389783143997192e-02</internalNodes>
          <leafValues>
            7.4353432655334473e-01 -7.5093460083007813e-01</leafValues></_>
        <_>
          <internalNodes>
            0 -1 35 -3.2876632176339626e-03</internalNodes>
          <leafValues>
            7.4438923597335815e-01 -7.5247687101364136e-01</leafValues></_>
        <_>
          <internalNodes>
            0 -1 38 -2.0320352632552385e-05</internalNodes>
          <leafValues>
            5.1524281501770020e-01 -8.6518800258636475e-01</leafValues></_></weakClassifiers></_>
    <!-- stage 4 -->
    <_>
      <maxWeakCount>5</maxWeakCount>
      <stageThreshold>-8.9619565010070801e-01</stageThreshold>
      <weakClassifiers>
        <_>
          <internalNodes>
            0 -1 13 1.5499696135520935e-02</internalNodes>
          <leafValues>
            -6.5818184614181519e-01 8.6461538076400757e-01</leafValues></_>
        <_>
          <internalNodes>
            0 -1 49 4.7560539096593857e-03</internalNodes>
          <leafValues>
            -7.7907496690750122e-01 7.5024759769439697e-01</leafValues></_>
        <_>
          <internalNodes>
            0 -1 63 2.0492225303314626e-04</internalNodes>
          <leafValues>
            -9.3382513523101807e-01 4.8538801074028015e-01</leafValues></_>
        <_>
          <internalNodes>
            0 -1 7 -2.9297372326254845e-02</internalNodes>
          <leafValues>
            8.6230403184890747e-01 -5.6438642740249634e-01</leafValues></_>
        <_>
          <internalNodes>
            0 -1 32 -2.3227270692586899e-02</internalNodes>
          <leafValues>
            6.2681502103805542e-01 -8.0663090944290161e-01</leafValues></_></weakClassifiers></_>
    <!-- stage 5 -->
    <_>
      <maxWeakCount>4</maxWeakCount>
      <stageThreshold>-3.9209315180778503e-01</stageThreshold>
      <weakClassifiers>
        <_>
          <internalNodes>
            0 -1 55 1.1485226452350616e-02</internalNodes>
          <leafValues>
            -7.7578473091125488e-01 7.2413790225982666e-01</leafValues></_>
        <_>
          <internalNodes>
            0 -1 44 -2.2486527086584829e-05</internalNodes>
          <leafValues>
            5.7641136646270752e-01 -9.4395482540130615e-01</leafValues></_>
        <_>
          <internalNodes>
            0 -1 69 2.0058092559338547e-05</internalNodes>
          <leafValues>
            -7.5168210268020630e-01 7.6176327466964722e-01</leafValues></_>
        <_>
          <internalNodes>
            0 -1 60 -5.4859183728694916e-04</internalNodes>
          <leafValues>
            6.2633633613586426e-01 -9.4096028804779053e-01</leafValues></_></weakClassifiers></_>
    <!-- stage 6 -->
    <_>
      <maxWeakCount>4</maxWeakCount>
      <stageThreshold>-7.2188961505889893e-01</stageThreshold>
      <weakClassifiers>
        <_>
          <internalNodes>
            0 -1 15 -1.4800664037466049e-02</internalNodes>
          <leafValues>
            6.4066195487976074e-01 -9.6610170602798462e-01</leafValues></_>
        <_>
          <internalNodes>
            0 -1 18 2.9119970349711366e-05</internalNodes>
          <leafValues>
            -9.4574242830276489e-01 5.1770371198654175e-01</leafValues></_>
        <_>
          <internalNodes>
            0 -1 4 5.1456987857818604e-02</internalNodes>
          <leafValues>
            -7.0284265279769897e-01 7.4202036857604980e-01</leafValues></_>
        <_>
          <internalNodes>
            0 -1 16 -2.8012301772832870e-02</internalNodes>
          <leafValues>
            4.2935103178024292e-01 -9.5275372266769409e-01</leafValues></_></weakClassifiers></_>
    <!-- stage 7 -->
    <_>
      <maxWeakCount>4</maxWeakCount>
      <stageThreshold>-6.1674612760543823e-01</stageThreshold>
      <weakClassifiers>
        <_>
          <internalNodes>
            0 -1 47 -4.2964704334735870e-03</internalNodes>
          <leafValues>
            7.9939210414886475e-01 -6.0147601366043091e-01</leafValues></_>
        <_>
          <internalNodes>
            0 -1 1 -7.3580995202064514e-02</internalNodes>
          <leafValues>
            5.1011031866073608e-01 -9.3354243040084839e-01</leafValues></_>
        <_>
          <internalNodes>
            0 -1 70 1.0098101338371634e-03</internalNodes>
          <leafValues>
            -9.4392424821853638e-01 4.4216874241828918e-01</leafValues></_>
        <_>
          <internalNodes>
            0 -1 62 -2.1262245354591869e-05</internalNodes>
          <leafValues>
            4.7610360383987427e-01 -8.5650801658630371e-01</leafValues></_></weakClassifiers></_>
    <!-- stage 8 -->
    <_>
      <maxWeakCount>5</maxWeakCount>
      <stageThreshold>-1.2838606834411621e+00</stageThreshold>
      <weakClassifiers>
        <_>
          <internalNodes>
            0 -1 9 1.9232939928770065e-02</internalNodes>
          <leafValues>
            -6.4754098653793335e-01 7.2471910715103149e-01</leafValues></_>
        <_>
          <internalNodes>
            0 -1 24 -2.5155180992442183e-05</internalNodes>
          <leafValues>
            5.0097244977951050e-01 -8.7682276964187622e-01</leafValues></_>
        <_>
          <internalNodes>
            0 -1 59 -1.2199147604405880e-02</internalNodes>
          <leafValues>
            5.7483947277069092e-01 -7.4006193876266479e-01</leafValues></_>
        <_>
          <internalNodes>
            0 -1 65 1.9292982760816813e-03</internalNodes>
          <leafValues>
            3.8264873623847961e-01 -9.9062049388885498e-01</leafValues></_>
        <_>
          <internalNodes>
            0 -1 6 4.9713812768459320e-03</internalNodes>
          <leafValues>
            -7.7987903356552124e-01 4.3997064232826233e-01</leafValues></_></weakClassifiers></_>
    <!-- stage 9 -->
    <_>
      <maxWeakCount>5</maxWeakCount>
      <stageThreshold>-8.6554557085037231e-01</stageThreshold>
      <weakClassifiers>
        <_>
          <internalNodes>
            0 -1 28 -2.7307299897074699e-03</internalNodes>
          <leafValues>
            6.1306530237197876e-01 -7.1287131309509277e-01</leafValues></_>
        <_>
          <internalNodes>
            0 -1 0 -3.5520471632480621e-02</internalNodes>
          <leafValues>
            6.7309254407882690e-01 -5.9280103445053101e-01</leafValues></_>
        <_>
          <internalNodes>
            0 -1 53 -1.3979117386043072e-02</internalNodes>
          <leafValues>
            5.4459691047668457e-01 -8.0926072597503662e-01</leafValues></_>
        <_>
          <internalNodes>
            0 -1 8 -4.3872548267245293e-03</internalNodes>
          <leafValues>
            4.6527263522148132e-01 -7.6117402315139771e-01</leafValues></_>
        <_>
          <internalNodes>
            0 -1 19 -2.8335142880678177e-02</internalNodes>
          <leafValues>
            6.5670388936996460e-01 -5.2231264114379883e-01</leafValues></_></weakClassifiers></_>
    <!-- stage 10 -->
    <_>
      <maxWeakCount>4</maxWeakCount>
      <stageThreshold>-5.6792831420898438e-01</stageThreshold>
      <weakClassifiers>
        <_>
          <internalNodes>
            0 -1 29 4.3132118880748749e-03</internalNodes>
          <leafValues>
            -9.6202534437179565e-01 5.7013577222824097e-01</leafValues></_>
        <_>
          <internalNodes>
            0 -1 48 -8.7267374619841576e-03</internalNodes>
          <leafValues>
            6.1197829246520996e-01 -6.1376655101776123e-01</leafValues></_>
        <_>
          <internalNodes>
            0 -1 54 -3.6482834257185459e-03</internalNodes>
          <leafValues>
            4.2146736383438110e-01 -8.9479535818099976e-01</leafValues></_>
        <_>
          <internalNodes>
            0 -1 46 1.5055963303893805e-03</internalNodes>
          <leafValues>
            4.0112257003784180e-01 -9.4576483964920044e-01</leafValues></_></weakClassifiers></_>
    <!-- stage 11 -->
    <_>
      <maxWeakCount>5</maxWeakCount>
      <stageThreshold>-1.1029995679855347e+00</stageThreshold>
      <weakClassifiers>
        <_>
          <internalNodes>
            0 -1 52 -5.1689083193195984e-05</internalNodes>
          <leafValues>
            5.8810067176818848e-01 -9.6319019794464111e-01</leafValues></_>
        <_>
          <internalNodes>
            0 -1 14 -6.5389685332775116e-03</internalNodes>
          <leafValues>
            7.2382426261901855e-01 -7.0178836584091187e-01</leafValues></_>
        <_>
          <internalNodes>
            0 -1 20 5.5270818993449211e-03</internalNodes>
          <leafValues>
            -4.4470220804214478e-01 8.3541989326477051e-01</leafValues></_>
        <_>
          <internalNodes>
            0 -1 64 -2.0320352632552385e-05</internalNodes>
          <leafValues>
            4.3472358584403992e-01 -9.2128551006317139e-01</leafValues></_>
        <_>
          <internalNodes>
            0 -1 39 9.0551876928657293e-04</internalNodes>
          <leafValues>
            3.9769542217254639e-01 -8.5365498065948486e-01</leafValues></_></weakClassifiers></_>
    <!-- stage 12 -->
    <_>
      <maxWeakCount>4</maxWeakCount>
      <stageThreshold>-5.5448991060256958e-01</stageThreshold>
      <weakClassifiers>
        <_>
          <internalNodes>
            0 -1 21 6.6161397844552994e-03</internalNodes>
          <leafValues>
            5.9906762838363647e-01 -9.1812866926193237e-01</leafValues></_>
        <_>
          <internalNodes>
            0 -1 37 -8.4244774188846350e-04</internalNodes>
          <leafValues>
            5.6111848354339600e-01 -7.2386777400970459e-01</leafValues></_>
        <_>
          <internalNodes>
            0 -1 5 -5.0292618572711945e-02</internalNodes>
          <leafValues>
            5.2377843856811523e-01 -7.7440738677978516e-01</leafValues></_>
        <_>
          <internalNodes>
            0 -1 41 -2.0954299543518573e-05</internalNodes>
          <leafValues>
            5.7692766189575195e-01 -6.3132029771804810e-01</leafValues></_></weakClassifiers></_>
    <!-- stage 13 -->
    <_>
      <maxWeakCount>4</maxWeakCount>
      <stageThreshold>-4.3773376941680908e-01</stageThreshold>
      <weakClassifiers>
        <_>
          <internalNodes>
            0 -1 51 -1.6944792587310076e-03</internalNodes>
          <leafValues>
            7.4923545122146606e-01 -5.3113555908203125e-01</leafValues></_>
        <_>
          <internalNodes>
            0 -1 22 -1.1606476455926895e-01</internalNodes>
          <leafValues>
            -9.5213484764099121e-01 4.3946936726570129e-01</leafValues></_>
        <_>
          <internalNodes>
            0 -1 31 -1.2827973114326596e-04</internalNodes>
          <leafValues>
            5.9576320648193359e-01 -6.1939805746078491e-01</leafValues></_>
        <_>
          <internalNodes>
            0 -1 11 -1.8472028896212578e-03</internalNodes>
          <leafValues>
            4.1252747178077698e-01 -9.4183081388473511e-01</leafValues></_></weakClassifiers></_>
    <!-- stage 14 -->
    <_>
      <maxWeakCount>5</maxWeakCount>
      <stageThreshold>-5.7919490337371826e-01</stageThreshold>
      <weakClassifiers>
        <_>
          <internalNodes>
            0 -1 71 1.8124099005945027e-04</internalNodes>
          <leafValues>
            -9.0476191043853760e-01 5.1434880495071411e-01</leafValues></_>
        <_>
          <internalNodes>
            0 -1 31 -6.6993897780776024e-04</internalNodes>
          <leafValues>
            5.6874167919158936e-01 -6.0542327165603638e-01</leafValues></_>
        <_>
          <internalNodes>
            0 -1 36 3.9373815059661865e-02</internalNodes>
          <leafValues>
            -9.2076563835144043e-01 3.9013034105300903e-01</leafValues></_>
        <_>
          <internalNodes>
            0 -1 40 -7.5163174187764525e-04</internalNodes>
          <leafValues>
            -9.9394494295120239e-01 2.2815878689289093e-01</leafValues></_>
        <_>
          <internalNodes>
            0 -1 33 -7.4437279254198074e-03</internalNodes>
          <leafValues>
            3.1270113587379456e-01 -9.0834349393844604e-01</leafValues></_></weakClassifiers></_>
    <!-- stage 15 -->
    <_>
      <maxWeakCount>4</maxWeakCount>
      <stageThreshold>-5.3981375694274902e-01</stageThreshold>
      <weakClassifiers>
        <_>
          <internalNodes>
            0 -1 66 -1.7631507944315672e-05</internalNodes>
          <leafValues>
            6.2532979249954224e-01 -6.1990952491760254e-01</leafValues></_>
        <_>
          <internalNodes>
            0 -1 30 -4.8761176876723766e-03</internalNodes>
          <leafValues>
            3.8045582175254822e-01 -9.9113833904266357e-01</leafValues></_>
        <_>
          <internalNodes>
            0 -1 2 -4.0412403643131256e-02</internalNodes>
          <leafValues>
            5.8930826187133789e-01 -6.1653423309326172e-01</leafValues></_>
        <_>
          <internalNodes>
            0 -1 61 -3.1947376555763185e-05</internalNodes>
          <leafValues>
            3.9522793889045715e-01 -9.2906516790390015e-01</leafValues></_></weakClassifiers></_>
    <!-- stage 16 -->
    <_>
      <maxWeakCount>4</maxWeakCount>
      <stageThreshold>-5.2847480773925781e-01</stageThreshold>
      <weakClassifiers>
        <_>
          <internalNodes>
            0 -1 67 1.0953126475214958e-03</internalNodes>
          <leafValues>
            6.2945365905761719e-01 -9.2178773880004883e-01</leafValues></_>
        <_>
          <internalNodes>
            0 -1 34 -5.8569926768541336e-03</internalNodes>
          <leafValues>
            8.3496445417404175e-01 -5.5287009477615356e-01</leafValues></_>
        <_>
          <internalNodes>
            0 -1 68 -2.4140458845067769e-04</internalNodes>
          <leafValues>
            4.9549341201782227e-01 -8.0326753854751587e-01</leafValues></_>
        <_>
          <internalNodes>
            0 -1 26 -3.4342560917139053e-02</internalNodes>
          <leafValues>
            -9.3976294994354248e-01 4.5068955421447754e-01</leafValues></_></weakClassifiers></_>
    <!-- stage 17 -->
    <_>
      <maxWeakCount>5</maxWeakCount>
      <stageThreshold>-4.5844757556915283e-01</stageThreshold>
      <weakClassifiers>
        <_>
          <internalNodes>
            0 -1 50 -1.3160124421119690e-02</internalNodes>
          <leafValues>
            5.7772624492645264e-01 -8.8165682554244995e-01</leafValues></_>
        <_>
          <internalNodes>
            0 -1 42 8.6757150711491704e-05</internalNodes>
          <leafValues>
            -6.6345363855361938e-01 5.1395207643508911e-01</leafValues></_>
        <_>
          <internalNodes>
            0 -1 58 -7.9304963583126664e-04</internalNodes>
          <leafValues>
            -9.7915971279144287e-01 3.2330900430679321e-01</leafValues></_>
        <_>
          <internalNodes>
            0 -1 10 -7.0058071287348866e-05</internalNodes>
          <leafValues>
            3.5681691765785217e-01 -7.7697151899337769e-01</leafValues></_>
        <_>
          <internalNodes>
            0 -1 17 2.0766174202435650e-05</internalNodes>
          <leafValues>
            -7.7086877822875977e-01 4.1149809956550598e-01</leafValues></_></weakClassifiers></_></stages>
  <features>
    <_>
      <rects>
        <_>
          1 4 18 1 -1.</_>
        <_>
          7 4 6 1 3.</_></rects>
      <tilted>0</tilted></_>
    <_>
      <rects>
        <_>
          2 0 15 16 -1.</_>
        <_>
          2 8 15 8 2.</_></rects>
      <tilted>0</tilted></_>
    <_>
      <rects>
        <_>
          2 2 14 4 -1.</_>
        <_>
          2 4 14 2 2.</_></rects>
      <tilted>0</tilted></_>
    <_>
      <rects>
        <_>
          2 4 4 9 -1.</_>
        <_>
          4 4 2 9 2.</_></rects>
      <tilted>0</tilted></_>
    <_>
      <rects>
        <_>
          2 4 10 6 -1.</_>
        <_>
          2 4 5 3 2.</_>
        <_>
          7 7 5 3 2.</_></rects>
      <tilted>0</tilted></_>
    <_>
      <rects>
        <_>
          2 4 18 2 -1.</_>
        <_>
          8 4 6 2 3.</_></rects>
      <tilted>0</tilted></_>
    <_>
      <rects>
        <_>
          2 6 8 2 -1.</_>
        <_>
          2 6 4 1 2.</_>
        <_>
          6 7 4 1 2.</_></rects>
      <tilted>0</tilted></_>
    <_>
      <rects>
        <_>
          2 7 6 7 -1.</_>
        <_>
          4 7 2 7 3.</_></rects>
      <tilted>0</tilted></_>
    <_>
      <rects>
        <_>
          2 8 11 2 -1.</_>
        <_>
          2 9 11 1 2.</_></rects>
      <tilted>0</tilted></_>
    <_>
      <rects>
        <_>
          3 4 8 4 -1.</_>
        <_>
          3 4 4 2 2.</_>
        <_>
          7 6 4 2 2.</_></rects>
      <tilted>0</tilted></_>
    <_>
      <rects>
        <_>
          3 7 2 2 -1.</_>
        <_>
          3 8 2 1 2.</_></rects>
      <tilted>0</tilted></_>
    <_>
      <rects>
        <_>
          3 19 12 1 -1.</_>
        <_>
          7 19 4 1 3.</_></rects>
      <tilted>0</tilted></_>
    <_>
      <rects>
        <_>
          4 3 12 2 -1.</_>
        <_>
          4 4 12 1 2.</_></rects>
      <tilted>0</tilted></_>
    <_>
      <rects>
        <_>
          4 4 4 6 -1.</_>
        <_>
          4 4 2 3 2.</_>
        <_>
          6 7 2 3 2.</_></rects>
      <tilted>0</tilted></_>
    <_>
      <rects>
        <_>
          4 7 3 8 -1.</_>
        <_>
          5 7 1 8 3.</_></rects>
      <tilted>0</tilted></_>
    <_>
      <rects>
        <_>
          4 8 7 6 -1.</_>
        <_>
          4 10 7 2 3.</_></rects>
      <tilted>0</tilted></_>
    <_>
      <rects>
        <_>
          4 11 9 8 -1.</_>
        <_>
          7 11 3 8 3.</_></rects>
      <tilted>0</tilted></_>
    <_>
      <rects>
        <_>
          4 12 8 2 -1.</_>
        <_>
          4 13 8 1 2.</_></rects>
      <tilted>0</tilted></_>
    <_>
      <rects>
        <_>
          4 14 6 2 -1.</_>
        <_>
          4 15 6 1 2.</_></rects>
      <tilted>0</tilted></_>
    <_>
      <rects>
        <_>
          5 0 2 10 -1.</_>
        <_>
          5 5 2 5 2.</_></rects>
      <tilted>0</tilted></_>
    <_>
      <rects>
        <_>
          5 4 6 2 -1.</_>
        <_>
          5 4 3 1 2.</_>
        <_>
          8 5 3 1 2.</_></rects>
      <tilted>0</tilted></_>
    <_>
      <rects>
        <_>
          5 5 10 11 -1.</_>
        <_>
          10 5 5 11 2.</_></rects>
      <tilted>0</tilted></_>
    <_>
      <rects>
        <_>
          5 6 11 12 -1.</_>
        <_>
          5 12 11 6 2.</_></rects>
      <tilted>0</tilted></_>
    <_>
      <rects>
        <_>
          5 7 5 12 -1.</_>
        <_>
          5 11 5 4 3.</_></rects>
      <tilted>0</tilted></_>
    <_>
      <rects>
        <_>
          5 10 3 4 -1.</_>
        <_>
          6 10 1 4 3.</_></rects>
      <tilted>0</tilted></_>
    <_>
      <rects>
        <_>
          5 14 4 6 -1.</_>
        <_>
          7 14 2 6 2.</_></rects>
      <tilted>0</tilted></_>
    <_>
      <rects>
        <_>
          6 4 8 11 -1.</_>
        <_>
          10 4 4 11 2.</_></rects>
      <tilted>0</tilted></_>
    <_>
      <rects>
        <_>
          6 6 8 8 -1.</_>
        <_>
          6 6 4 4 2.</_>
        <_>
          10 10 4 4 2.</_></rects>
      <tilted>0</tilted></_>
    <_>
      <rects>
        <_>
          6 8 2 6 -1.</_>
        <_>
          6 8 1 3 2.</_>
        <_>
          7 11 1 3 2.</_></rects>
      <tilted>0</tilted></_>
    <_>
      <rects>
        <_>
          6 13 8 1 -1.</_>
        <_>
          10 13 4 1 2.</_></rects>
      <tilted>0</tilted></_>
    <_>
      <rects>
        <_>
          7 4 6 8 -1.</_>
        <_>
          10 4 3 8 2.</_></rects>
      <tilted>0</tilted></_>
    <_>
      <rects>
        <_>
          7 5 2 4 -1.</_>
        <_>
          7 5 1 2 2.</_>
        <_>
          8 7 1 2 2.</_></rects>
      <tilted>0</tilted></_>
    <_>
      <rects>
        <_>
          7 5 10 4 -1.</_>
        <_>
          7 5 5 2 2.</_>
        <_>
          12 7 5 2 2.</_></rects>
      <tilted>0</tilted></_>
    <_>
      <rects>
        <_>
          7 11 6 8 -1.</_>
        <_>
          7 11 3 4 2.</_>
        <_>
          10 15 3 4 2.</_></rects>
      <tilted>0</tilted></_>
    <_>
      <rects>
        <_>
          8 3 3 3 -1.</_>
        <_>
          8 4 3 1 3.</_></rects>
      <tilted>0</tilted></_>
    <_>
      <rects>
        <_>
          8 6 2 5 -1.</_>
        <_>
          9 6 1 5 2.</_></rects>
      <tilted>0</tilted></_>
    <_>
      <rects>
        <_>
          8 6 8 14 -1.</_>
        <_>
          8 6 4 7 2.</_>
        <_>
          12 13 4 7 2.</_></rects>
      <tilted>0</tilted></_>
    <_>
      <rects>
        <_>
          8 7 3 3 -1.</_>
        <_>
          9 7 1 3 3.</_></rects>
      <tilted>0</tilted></_>
    <_>
      <rects>
        <_>
          8 10 4 3 -1.</_>
        <_>
          8 11 4 1 3.</_></rects>
      <tilted>0</tilted></_>
    <_>
      <rects>
        <_>
          8 11 2 5 -1.</_>
        <_>
          9 11 1 5 2.</_></rects>
      <tilted>0</tilted></_>
    <_>
      <rects>
        <_>
          8 12 2 3 -1.</_>
        <_>
          8 13 2 1 3.</_></rects>
      <tilted>0</tilted></_>
    <_>
      <rects>
        <_>
          8 14 1 3 -1.</_>
        <_>
          8 15 1 1 3.</_></rects>
      <tilted>0</tilted></_>
    <_>
      <rects>
        <_>
          8 19 6 1 -1.</_>
        <_>
          10 19 2 1 3.</_></rects>
      <tilted>0</tilted></_>
    <_>
      <rects>
        <_>
          9 5 3 4 -1.</_>
        <_>
          9 7 3 2 2.</_></rects>
      <tilted>0</tilted></_>
    <_>
      <rects>
        <_>
          9 6 2 1 -1.</_>
        <_>
          10 6 1 1 2.</_></rects>
      <tilted>0</tilted></_>
    <_>
      <rects>
        <_>
          9 8 6 7 -1.</_>
        <_>
          11 8 2 7 3.</_></rects>
      <tilted>0</tilted></_>
    <_>
      <rects>
        <_>
          9 8 6 6 -1.</_>
        <_>
          9 10 6 2 3.</_></rects>
      <tilted>0</tilted></_>
    <_>
      <rects>
        <_>
          9 9 3 3 -1.</_>
        <_>
          10 9 1 3 3.</_></rects>
      <tilted>0</tilted></_>
    <_>
      <rects>
        <_>
          9 9 3 6 -1.</_>
        <_>
          10 9 1 6 3.</_></rects>
      <tilted>0</tilted></_>
    <_>
      <rects>
        <_>
          10 3 2 10 -1.</_>
        <_>
          10 3 1 5 2.</_>
        <_>
          11 8 1 5 2.</_></rects>
      <tilted>0</tilted></_>
    <_>
      <rects>
        <_>
          10 3 3 6 -1.</_>
        <_>
          10 5 3 2 3.</_></rects>
      <tilted>0</tilted></_>
    <_>
      <rects>
        <_>
          10 8 1 2 -1.</_>
        <_>
          10 9 1 1 2.</_></rects>
      <tilted>0</tilted></_>
    <_>
      <rects>
        <_>
          10 9 4 6 -1.</_>
        <_>
          10 12 4 3 2.</_></rects>
      <tilted>0</tilted></_>
    <_>
      <rects>
        <_>
          10 10 9 2 -1.</_>
        <_>
          13 10 3 2 3.</_></rects>
      <tilted>0</tilted></_>
    <_>
      <rects>
        <_>
          10 11 3 9 -1.</_>
        <_>
          10 14 3 3 3.</_></rects>
      <tilted>0</tilted></_>
    <_>
      <rects>
        <_>
          10 11 6 6 -1.</_>
        <_>
          10 11 3 3 2.</_>
        <_>
          13 14 3 3 2.</_></rects>
      <tilted>0</tilted></_>
    <_>
      <rects>
        <_>
          11 4 4 6 -1.</_>
        <_>
          11 4 2 3 2.</_>
        <_>
          13 7 2 3 2.</_></rects>
      <tilted>0</tilted></_>
    <_>
      <rects>
        <_>
          11 6 6 9 -1.</_>
        <_>
          13 6 2 9 3.</_></rects>
      <tilted>0</tilted></_>
    <_>
      <rects>
        <_>
          11 11 3 3 -1.</_>
        <_>
          11 12 3 1 3.</_></rects>
      <tilted>0</tilted></_>
    <_>
      <rects>
        <_>
          11 12 6 3 -1.</_>
        <_>
          13 12 2 3 3.</_></rects>
      <tilted>0</tilted></_>
    <_>
      <rects>
        <_>
          12 4 5 2 -1.</_>
        <_>
          12 5 5 1 2.</_></rects>
      <tilted>0</tilted></_>
    <_>
      <rects>
        <_>
          12 5 5 2 -1.</_>
        <_>
          12 6 5 1 2.</_></rects>
      <tilted>0</tilted></_>
    <_>
      <rects>
        <_>
          12 6 1 3 -1.</_>
        <_>
          12 7 1 1 3.</_></rects>
      <tilted>0</tilted></_>
    <_>
      <rects>
        <_>
          12 6 6 1 -1.</_>
        <_>
          15 6 3 1 2.</_></rects>
      <tilted>0</tilted></_>
    <_>
      <rects>
        <_>
          12 8 4 2 -1.</_>
        <_>
          12 8 2 1 2.</_>
        <_>
          14 9 2 1 2.</_></rects>
      <tilted>0</tilted></_>
    <_>
      <rects>
        <_>
          12 10 6 2 -1.</_>
        <_>
          12 11 6 1 2.</_></rects>
      <tilted>0</tilted></_>
    <_>
      <rects>
        <_>
          12 11 2 2 -1.</_>
        <_>
          12 12 2 1 2.</_></rects>
      <tilted>0</tilted></_>
    <_>
      <rects>
        <_>
          12 11 3 2 -1.</_>
        <_>
          12 12 3 1 2.</_></rects>
      <tilted>0</tilted></_>
    <_>
      <rects>
        <_>
          12 13 3 1 -1.</_>
        <_>
          13 13 1 1 3.</_></rects>
      <tilted>0</tilted></_>
    <_>
      <rects>
        <_>
          13 12 2 2 -1.</_>
        <_>
          13 12 1 1 2.</_>
        <_>
          14 13 1 1 2.</_></rects>
      <tilted>0</tilted></_>
    <_>
      <rects>
        <_>
          14 7 1 10 -1.</_>
        <_>
          14 12 1 5 2.</_></rects>
      <tilted>0</tilted></_>
    <_>
      <rects>
        <_>
          14 10 2 6 -1.</_>
        <_>
          15 10 1 6 2.</_></rects>
      <tilted>0</tilted></_></features></cascade>
</opencv_storage>
