<?xml version="1.0"?>
<opencv_storage>
<cascade>
  <stageType>BOOST</stageType>
  <featureType>HAAR</featureType>
  <height>20</height>
  <width>20</width>
  <stageParams>
    <boostType>GAB</boostType>
    <minHitRate>9.9900001287460327e-01</minHitRate>
    <maxFalseAlarm>4.0000000596046448e-01</maxFalseAlarm>
    <weightTrimRate>9.4999999999999996e-01</weightTrimRate>
    <maxDepth>1</maxDepth>
    <maxWeakCount>100</maxWeakCount></stageParams>
  <featureParams>
    <maxCatCount>0</maxCatCount>
    <featSize>1</featSize>
    <mode>BASIC</mode></featureParams>
  <stageNum>19</stageNum>
  <stages>
    <!-- stage 0 -->
    <_>
      <maxWeakCount>2</maxWeakCount>
      <stageThreshold>-1.1753611266613007e-01</stageThreshold>
      <weakClassifiers>
        <_>
          <internalNodes>
            0 -1 72 -3.2785035669803619e-02</internalNodes>
          <leafValues>
            9.1788858175277710e-01 -9.7129184007644653e-01</leafValues></_>
        <_>
          <internalNodes>
            0 -1 56 -7.1867103688418865e-03</internalNodes>
          <leafValues>
            8.5375577211380005e-01 -9.7682875394821167e-01</leafValues></_></weakClassifiers></_>
    <!-- stage 1 -->
    <_>
      <maxWeakCount>2</maxWeakCount>
      <stageThreshold>-1.3142728805541992e-01</stageThreshold>
      <weakClassifiers>
        <_>
          <internalNodes>
            0 -1 9 3.0134176835417747e-02</internalNodes>
          <leafValues>
            -8.8516747951507568e-01 8.6510264873504639e-01</leafValues></_>
        <_>
          <internalNodes>
            0 -1 41 -9.1182682663202286e-03</internalNodes>
          <leafValues>
            7.5374019145965576e-01 -9.7793442010879517e-01</leafValues></_></weakClassifiers></_>
    <!-- stage 2 -->
    <_>
      <maxWeakCount>3</maxWeakCount>
      <stageThreshold>-8.2786732912063599e-01</stageThreshold>
      <weakClassifiers>
        <_>
          <internalNodes>
            0 -1 13 -7.2237094864249229e-03</internalNodes>
          <leafValues>
            8.1034481525421143e-01 -8.5148513317108154e-01</leafValues></_>
        <_>
          <internalNodes>
            0 -1 77 -2.5022957473993301e-02</internalNodes>
          <leafValues>
            8.8810050487518311e-01 -7.5591588020324707e-01</leafValues></_>
        <_>
          <internalNodes>
            0 -1 2 -2.9187332838773727e-02</internalNodes>
          <leafValues>
            7.7953368425369263e-01 -7.3479008674621582e-01</leafValues></_></weakClassifiers></_>
    <!-- stage 3 -->
    <_>
      <maxWeakCount>4</maxWeakCount>
      <stageThreshold>-6.1587083339691162e-01</stageThreshold>
      <weakClassifiers>
        <_>
          <internalNodes>
            0 -1 65 4.3356288224458694e-03</internalNodes>
          <leafValues>
            -9.5209580659866333e-01 7.0234984159469604e-01</leafValues></_>
        <_>
          <internalNodes>
            0 -1 24 -3.8970433175563812e-02</internalNodes>
          <leafValues>
            6.9999134540557861e-01 -7.9241943359375000e-01</leafValues></_>
        <_>
          <internalNodes>
            0 -1 85 5.3043477237224579e-03</internalNodes>
          <leafValues>
            -8.7894600629806519e-01 5.5305290222167969e-01</leafValues></_>
        <_>
          <internalNodes>
            0 -1 7 -1.5296651050448418e-02</internalNodes>
          <leafValues>
            5.7559150457382202e-01 -8.4145146608352661e-01</leafValues></_></weakClassifiers></_>
    <!-- stage 4 -->
    <_>
      <maxWeakCount>5</maxWeakCount>
      <stageThreshold>-1.1611487865447998e+00</stageThreshold>
      <weakClassifiers>
        <_>
          <internalNodes>
            0 -1 27 1.1073671281337738e-02</internalNodes>
          <leafValues>
            -7.9166668653488159e-01 7.3184359073638916e-01</leafValues></_>
        <_>
          <internalNodes>
            0 -1 79 -2.4555392563343048e-02</internalNodes>
          <leafValues>
            6.4332479238510132e-01 -7.2222626209259033e-01</leafValues></_>
        <_>
          <internalNodes>
            0 -1 1 -4.8281043767929077e-02</internalNodes>
          <leafValues>
            5.2507525682449341e-01 -9.8957246541976929e-01</leafValues></_>
        <_>
          <internalNodes>
            0 -1 10 -3.2092936336994171e-02</internalNodes>
          <leafValues>
            7.8541082143783569e-01 -6.3335984945297241e-01</leafValues></_>
        <_>
          <internalNodes>
            0 -1 43 1.8932998500531539e-05</internalNodes>
          <leafValues>
            -8.8213020563125610e-01 4.6102881431579590e-01</leafValues></_></weakClassifiers></_>
    <!-- stage 5 -->
    <_>
      <maxWeakCount>4</maxWeakCount>
      <stageThreshold>-1.3580581545829773e-01</stageThreshold>
      <weakClassifiers>
        <_>
          <internalNodes>
            0 -1 82 3.0196271836757660e-05</internalNodes>
          <leafValues>
            -8.5185188055038452e-01 6.3917523622512817e-01</leafValues></_>
        <_>
          <internalNodes>
            0 -1 11 -5.2500508725643158e-02</internalNodes>
          <leafValues>
            8.0062049627304077e-01 -6.5616464614868164e-01</leafValues></_>
        <_>
          <internalNodes>
            0 -1 80 -2.6679452508687973e-02</internalNodes>
          <leafValues>
            7.6082032918930054e-01 -7.2656446695327759e-01</leafValues></_>
        <_>
          <internalNodes>
            0 -1 23 -6.5990365110337734e-03</internalNodes>
          <leafValues>
            6.4199000597000122e-01 -6.9948208332061768e-01</leafValues></_></weakClassifiers></_>
    <!-- stage 6 -->
    <_>
      <maxWeakCount>5</maxWeakCount>
      <stageThreshold>-1.4900147914886475e+00</stageThreshold>
      <weakClassifiers>
        <_>
          <internalNodes>
            0 -1 81 -3.3667100069578737e-05</internalNodes>
          <leafValues>
            7.0588237047195435e-01 -8.7500000000000000e-01</leafValues></_>
        <_>
          <internalNodes>
            0 -1 60 4.7835474106250331e-05</internalNodes>
          <leafValues>
            -8.8592821359634399e-01 5.5243521928787231e-01</leafValues></_>
        <_>
          <internalNodes>
            0 -1 74 3.0196271836757660e-05</internalNodes>
          <leafValues>
            -7.7460867166519165e-01 5.3662472963333130e-01</leafValues></_>
        <_>
          <internalNodes>
            0 -1 50 2.3917737053125165e-05</internalNodes>
          <leafValues>
            -7.8271555900573730e-01 6.0002607107162476e-01</leafValues></_>
        <_>
          <internalNodes>
            0 -1 38 1.9172261090716347e-05</internalNodes>
          <leafValues>
            -7.6316452026367188e-01 5.1700431108474731e-01</leafValues></_></weakClassifiers></_>
    <!-- stage 7 -->
    <_>
      <maxWeakCount>6</maxWeakCount>
      <stageThreshold>-6.6620934009552002e-01</stageThreshold>
      <weakClassifiers>
        <_>
          <internalNodes>
            0 -1 54 -2.2311007342068478e-05</internalNodes>
          <leafValues>
            6.4550262689590454e-01 -7.7906978130340576e-01</leafValues></_>
        <_>
          <internalNodes>
            0 -1 73 2.0204090105835348e-05</internalNodes>
          <leafValues>
            -6.7287153005599976e-01 6.1102932691574097e-01</leafValues></_>
        <_>
          <internalNodes>
            0 -1 37 2.7160905301570892e-04</internalNodes>
          <leafValues>
            -8.8178700208663940e-01 4.4907769560813904e-01</leafValues></_>
        <_>
          <internalNodes>
            0 -1 62 -2.0204090105835348e-05</internalNodes>
          <leafValues>
            4.7269573807716370e-01 -8.2031452655792236e-01</leafValues></_>
        <_>
          <internalNodes>
            0 -1 76 -4.6554261643905193e-05</internalNodes>
          <leafValues>
            6.7224448919296265e-01 -5.8734595775604248e-01</leafValues></_>
        <_>
          <internalNodes>
            0 -1 48 -4.7223587898770347e-05</internalNodes>
          <leafValues>
            4.9826836585998535e-01 -8.3192837238311768e-01</leafValues></_></weakClassifiers></_>
    <!-- stage 8 -->
    <_>
      <maxWeakCount>6</maxWeakCount>
      <stageThreshold>-1.5924254655838013e+00</stageThreshold>
      <weakClassifiers>
        <_>
          <internalNodes>
            0 -1 31 -7.6866466552019119e-03</internalNodes>
          <leafValues>
            6.6666668653488159e-01 -6.8421053886413574e-01</leafValues></_>
        <_>
          <internalNodes>
            0 -1 28 -4.8285601224051788e-05</internalNodes>
          <leafValues>
            4.6972301602363586e-01 -8.5020458698272705e-01</leafValues></_>
        <_>
          <internalNodes>
            0 -1 78 -5.1311977207660675e-02</internalNodes>
          <leafValues>
            7.2083693742752075e-01 -5.7043194770812988e-01</leafValues></_>
        <_>
          <internalNodes>
            0 -1 39 -1.1118372203782201e-03</internalNodes>
          <leafValues>
            -9.6322196722030640e-01 4.4314521551132202e-01</leafValues></_>
        <_>
          <internalNodes>
            0 -1 57 4.7996528446674347e-02</internalNodes>
          <leafValues>
            -5.4651403427124023e-01 7.7483880519866943e-01</leafValues></_>
        <_>
          <internalNodes>
            0 -1 4 -6.8271130323410034e-02</internalNodes>
          <leafValues>
            6.1579036712646484e-01 -7.2216457128524780e-01</leafValues></_></weakClassifiers></_>
    <!-- stage 9 -->
    <_>
      <maxWeakCount>6</maxWeakCount>
      <stageThreshold>-7.4483406543731689e-01</stageThreshold>
      <weakClassifiers>
        <_>
          <internalNodes>
            0 -1 59 6.2293596565723419e-03</internalNodes>
          <leafValues>
            -6.3207548856735229e-01 7.2189348936080933e-01</leafValues></_>
        <_>
          <internalNodes>
            0 -1 5 -4.1460417211055756e-02</internalNodes>
          <leafValues>
            4.6458858251571655e-01 -9.4893187284469604e-01</leafValues></_>
        <_>
          <internalNodes>
            0 -1 70 -1.8763441592454910e-02</internalNodes>
          <leafValues>
            6.2672418355941772e-01 -5.9966844320297241e-01</leafValues></_>
        <_>
          <internalNodes>
            0 -1 25 -1.0413493961095810e-02</internalNodes>
          <leafValues>
            6.0895913839340210e-01 -7.1754211187362671e-01</leafValues></_>
        <_>
          <internalNodes>
            0 -1 0 -1.6763234511017799e-02</internalNodes>
          <leafValues>
            4.0746915340423584e-01 -7.8119695186614990e-01</leafValues></_>
        <_>
          <internalNodes>
            0 -1 86 -3.5563920391723514e-04</internalNodes>
          <leafValues>
            3.9194571971893311e-01 -7.7175784111022949e-01</leafValues></_></weakClassifiers></_>
    <!-- stage 10 -->
    <_>
      <maxWeakCount>6</maxWeakCount>
      <stageThreshold>-8.0272352695465088e-01</stageThreshold>
      <weakClassifiers>
        <_>
          <internalNodes>
            0 -1 47 -2.9411637224256992e-03</internalNodes>
          <leafValues>
            6.4615386724472046e-01 -8.8749998807907104e-01</leafValues></_>
        <_>
          <internalNodes>
            0 -1 6 -1.6913861036300659e-02</internalNodes>
          <leafValues>
            5.2413934469223022e-01 -8.4188902378082275e-01</leafValues></_>
        <_>
          <internalNodes>
            0 -1 8 -4.1597142815589905e-02</internalNodes>
          <leafValues>
            6.4221584796905518e-01 -5.9447258710861206e-01</leafValues></_>
        <_>
          <internalNodes>
            0 -1 34 -7.0582088083028793e-03</internalNodes>
          <leafValues>
            -9.8109233379364014e-01 3.9520138502120972e-01</leafValues></_>
        <_>
          <internalNodes>
            0 -1 44 2.3036282509565353e-03</internalNodes>
          <leafValues>
            -6.3457053899765015e-01 5.6876289844512939e-01</leafValues></_>
        <_>
          <internalNodes>
            0 -1 35 2.7575362473726273e-02</internalNodes>
          <leafValues>
            3.9447888731956482e-01 -9.1340583562850952e-01</leafValues></_></weakClassifiers></_>
    <!-- stage 11 -->
    <_>
      <maxWeakCount>7</maxWeakCount>
      <stageThreshold>-5.1644629240036011e-01</stageThreshold>
      <weakClassifiers>
        <_>
          <internalNodes>
            0 -1 64 2.6944503188133240e-03</internalNodes>
          <leafValues>
            -8.0555558204650879e-01 5.5665022134780884e-01</leafValues></_>
        <_>
          <internalNodes>
            0 -1 55 -2.7804433557321317e-05</internalNodes>
          <leafValues>
            4.2960819602012634e-01 -8.5818439722061157e-01</leafValues></_>
        <_>
          <internalNodes>
            0 -1 30 -5.7560456916689873e-03</internalNodes>
          <leafValues>
            5.7297307252883911e-01 -5.7945108413696289e-01</leafValues></_>
        <_>
          <internalNodes>
            0 -1 16 -3.1603581737726927e-04</internalNodes>
          <leafValues>
            -9.0658462047576904e-01 3.3307752013206482e-01</leafValues></_>
        <_>
          <internalNodes>
            0 -1 75 -2.7571283280849457e-02</internalNodes>
          <leafValues>
            6.6210722923278809e-01 -5.0831443071365356e-01</leafValues></_>
        <_>
          <internalNodes>
            0 -1 89 -2.3862750822445378e-05</internalNodes>
          <leafValues>
            4.6432241797447205e-01 -7.2932755947113037e-01</leafValues></_>
        <_>
          <internalNodes>
            0 -1 20 -6.5828830003738403e-02</internalNodes>
          <leafValues>
            -9.8955702781677246e-01 3.0846339464187622e-01</leafValues></_></weakClassifiers></_>
    <!-- stage 12 -->
    <_>
      <maxWeakCount>4</maxWeakCount>
      <stageThreshold>-3.9428424835205078e-01</stageThreshold>
      <weakClassifiers>
        <_>
          <internalNodes>
            0 -1 66 2.3913747281767428e-04</internalNodes>
          <leafValues>
            5.7766991853713989e-01 -9.2753624916076660e-01</leafValues></_>
        <_>
          <internalNodes>
            0 -1 32 -3.9337631314992905e-02</internalNodes>
          <leafValues>
            6.7318886518478394e-01 -6.0343891382217407e-01</leafValues></_>
        <_>
          <internalNodes>
            0 -1 15 -2.7378778904676437e-03</internalNodes>
          <leafValues>
            4.1757962107658386e-01 -9.7158080339431763e-01</leafValues></_>
        <_>
          <internalNodes>
            0 -1 88 2.4479813873767853e-03</internalNodes>
          <leafValues>
            -4.8617365956306458e-01 7.1911126375198364e-01</leafValues></_></weakClassifiers></_>
    <!-- stage 13 -->
    <_>
      <maxWeakCount>6</maxWeakCount>
      <stageThreshold>-7.8026390075683594e-01</stageThreshold>
      <weakClassifiers>
        <_>
          <internalNodes>
            0 -1 18 1.1706564575433731e-02</internalNodes>
          <leafValues>
            -7.2631579637527466e-01 6.8888890743255615e-01</leafValues></_>
        <_>
          <internalNodes>
            0 -1 52 -4.5735039748251438e-03</internalNodes>
          <leafValues>
            7.8932434320449829e-01 -4.3418231606483459e-01</leafValues></_>
        <_>
          <internalNodes>
            0 -1 46 1.0270795319229364e-03</internalNodes>
          <leafValues>
            3.7094262242317200e-01 -1.</leafValues></_>
        <_>
          <internalNodes>
            0 -1 91 1.9541235640645027e-02</internalNodes>
          <leafValues>
            -5.5058711767196655e-01 5.6300753355026245e-01</leafValues></_>
        <_>
          <internalNodes>
            0 -1 93 -1.2879893183708191e-03</internalNodes>
          <leafValues>
            -8.7705558538436890e-01 3.3478003740310669e-01</leafValues></_>
        <_>
          <internalNodes>
            0 -1 26 -1.8923031166195869e-02</internalNodes>
          <leafValues>
            3.2464110851287842e-01 -8.8849598169326782e-01</leafValues></_></weakClassifiers></_>
    <!-- stage 14 -->
    <_>
      <maxWeakCount>6</maxWeakCount>
      <stageThreshold>-8.9086848497390747e-01</stageThreshold>
      <weakClassifiers>
        <_>
          <internalNodes>
            0 -1 17 -2.1600544452667236e-02</internalNodes>
          <leafValues>
            5.9898477792739868e-01 -8.0769228935241699e-01</leafValues></_>
        <_>
          <internalNodes>
            0 -1 51 -6.7255576141178608e-03</internalNodes>
          <leafValues>
            6.2896525859832764e-01 -5.4993361234664917e-01</leafValues></_>
        <_>
          <internalNodes>
            0 -1 45 -2.0378682165755890e-05</internalNodes>
          <leafValues>
            3.5500255227088928e-01 -9.7961407899856567e-01</leafValues></_>
        <_>
          <internalNodes>
            0 -1 63 -1.0066255927085876e-03</internalNodes>
          <leafValues>
            -8.8675773143768311e-01 3.3798122406005859e-01</leafValues></_>
        <_>
          <internalNodes>
            0 -1 84 -6.6365906968712807e-03</internalNodes>
          <leafValues>
            6.6892468929290771e-01 -5.2081304788589478e-01</leafValues></_>
        <_>
          <internalNodes>
            0 -1 87 2.2175085905473679e-04</internalNodes>
          <leafValues>
            -9.9662107229232788e-01 2.9458674788475037e-01</leafValues></_></weakClassifiers></_>
    <!-- stage 15 -->
    <_>
      <maxWeakCount>5</maxWeakCount>
      <stageThreshold>-9.6797925233840942e-01</stageThreshold>
      <weakClassifiers>
        <_>
          <internalNodes>
            0 -1 71 2.8377138078212738e-03</internalNodes>
          <leafValues>
            -7.0114940404891968e-01 6.1702126264572144e-01</leafValues></_>
        <_>
          <internalNodes>
            0 -1 22 9.6216142992489040e-05</internalNodes>
          <leafValues>
            -7.6264977455139160e-01 4.9451404809951782e-01</leafValues></_>
        <_>
          <internalNodes>
            0 -1 33 -6.2167905271053314e-02</internalNodes>
          <leafValues>
            8.5740822553634644e-01 -4.0819543600082397e-01</leafValues></_>
        <_>
          <internalNodes>
            0 -1 36 -1.9518787667038850e-05</internalNodes>
          <leafValues>
            4.3134823441505432e-01 -7.2150635719299316e-01</leafValues></_>
        <_>
          <internalNodes>
            0 -1 53 -3.3533615351188928e-05</internalNodes>
          <leafValues>
            3.4757304191589355e-01 -8.4550350904464722e-01</leafValues></_></weakClassifiers></_>
    <!-- stage 16 -->
    <_>
      <maxWeakCount>5</maxWeakCount>
      <stageThreshold>-1.3344212770462036e+00</stageThreshold>
      <weakClassifiers>
        <_>
          <internalNodes>
            0 -1 90 4.1696345433592796e-03</internalNodes>
          <leafValues>
            6.0613811016082764e-01 -7.9874211549758911e-01</leafValues></_>
        <_>
          <internalNodes>
            0 -1 49 -1.0606782510876656e-02</internalNodes>
          <leafValues>
            -9.5415186882019043e-01 3.9148476719856262e-01</leafValues></_>
        <_>
          <internalNodes>
            0 -1 14 -3.1953908503055573e-02</internalNodes>
          <leafValues>
            5.1647663116455078e-01 -6.7090845108032227e-01</leafValues></_>
        <_>
          <internalNodes>
            0 -1 58 -1.0509151965379715e-02</internalNodes>
          <leafValues>
            4.0122434496879578e-01 -8.1855791807174683e-01</leafValues></_>
        <_>
          <internalNodes>
            0 -1 68 1.5055881813168526e-03</internalNodes>
          <leafValues>
            -8.4257775545120239e-01 3.7090793251991272e-01</leafValues></_></weakClassifiers></_>
    <!-- stage 17 -->
    <_>
      <maxWeakCount>6</maxWeakCount>
      <stageThreshold>-8.5611295700073242e-01</stageThreshold>
      <weakClassifiers>
        <_>
          <internalNodes>
            0 -1 19 4.1599613614380360e-03</internalNodes>
          <leafValues>
            -8.5234898328781128e-01 5.9102243185043335e-01</leafValues></_>
        <_>
          <internalNodes>
            0 -1 67 -6.7532458342611790e-04</internalNodes>
          <leafValues>
            -9.6047139167785645e-01 3.4701305627822876e-01</leafValues></_>
        <_>
          <internalNodes>
            0 -1 69 -5.3054271265864372e-03</internalNodes>
          <leafValues>
            8.5566282272338867e-01 -4.0524473786354065e-01</leafValues></_>
        <_>
          <internalNodes>
            0 -1 3 -2.5485143065452576e-02</internalNodes>
          <leafValues>
            4.7536200284957886e-01 -7.2632873058319092e-01</leafValues></_>
        <_>
          <internalNodes>
            0 -1 12 -2.2244936553761363e-04</internalNodes>
          <leafValues>
            3.1489178538322449e-01 -8.6121529340744019e-01</leafValues></_>
        <_>
          <internalNodes>
            0 -1 29 -7.4639676313381642e-05</internalNodes>
          <leafValues>
            3.3001759648323059e-01 -8.3230721950531006e-01</leafValues></_></weakClassifiers></_>
    <!-- stage 18 -->
    <_>
      <maxWeakCount>6</maxWeakCount>
      <stageThreshold>-7.6420307159423828e-01</stageThreshold>
      <weakClassifiers>
        <_>
          <internalNodes>
            0 -1 21 -2.3511061444878578e-03</internalNodes>
          <leafValues>
            -9.5959597826004028e-01 4.5454546809196472e-01</leafValues></_>
        <_>
          <internalNodes>
            0 -1 61 2.6626701583154500e-04</internalNodes>
          <leafValues>
            -5.2382349967956543e-01 6.3680356740951538e-01</leafValues></_>
        <_>
          <internalNodes>
            0 -1 40 -3.3340409398078918e-02</internalNodes>
          <leafValues>
            3.9516359567642212e-01 -8.4698176383972168e-01</leafValues></_>
        <_>
          <internalNodes>
            0 -1 42 -2.2467394956038333e-05</internalNodes>
          <leafValues>
            2.7885985374450684e-01 -8.1397926807403564e-01</leafValues></_>
        <_>
          <internalNodes>
            0 -1 83 -2.2960000205785036e-03</internalNodes>
          <leafValues>
            6.7347210645675659e-01 -4.2205765843391418e-01</leafValues></_>
        <_>
          <internalNodes>
            0 -1 92 9.7566866315901279e-04</internalNodes>
          <leafValues>
            2.9525458812713623e-01 -9.4830626249313354e-01</leafValues></_></weakClassifiers></_></stages>
  <features>
    <_>
      <rects>
        <_>
          0 9 12 3 -1.</_>
        <_>
          4 9 4 3 3.</_></rects>
      <tilted>0</tilted></_>
    <_>
      <rects>
        <_>
          1 7 18 12 -1.</_>
        <_>
          1 11 18 4 3.</_></rects>
      <tilted>0</tilted></_>
    <_>
      <rects>
        <_>
          1 8 9 4 -1.</_>
        <_>
          4 8 3 4 3.</_></rects>
      <tilted>0</tilted></_>
    <_>
      <rects>
        <_>
          1 9 9 9 -1.</_>
        <_>
          4 9 3 9 3.</_></rects>
      <tilted>0</tilted></_>
    <_>
      <rects>
        <_>
          2 3 15 4 -1.</_>
        <_>
          7 3 5 4 3.</_></rects>
      <tilted>0</tilted></_>
    <_>
      <rects>
        <_>
          2 3 13 14 -1.</_>
        <_>
          2 10 13 7 2.</_></rects>
      <tilted>0</tilted></_>
    <_>
      <rects>
        <_>
          2 8 15 6 -1.</_>
        <_>
          2 10 15 2 3.</_></rects>
      <tilted>0</tilted></_>
    <_>
      <rects>
        <_>
          2 10 14 3 -1.</_>
        <_>
          9 10 7 3 2.</_></rects>
      <tilted>0</tilted></_>
    <_>
      <rects>
        <_>
          3 2 12 4 -1.</_>
        <_>
          3 4 12 2 2.</_></rects>
      <tilted>0</tilted></_>
    <_>
      <rects>
        <_>
          3 4 10 6 -1.</_>
        <_>
          3 4 5 3 2.</_>
        <_>
          8 7 5 3 2.</_></rects>
      <tilted>0</tilted></_>
    <_>
      <rects>
        <_>
          3 5 6 7 -1.</_>
        <_>
          5 5 2 7 3.</_></rects>
      <tilted>0</tilted></_>
    <_>
      <rects>
        <_>
          3 6 6 9 -1.</_>
        <_>
          5 6 2 9 3.</_></rects>
      <tilted>0</tilted></_>
    <_>
      <rects>
        <_>
          3 6 4 2 -1.</_>
        <_>
          3 7 4 1 2.</_></rects>
      <tilted>0</tilted></_>
    <_>
      <rects>
        <_>
          3 7 9 1 -1.</_>
        <_>
          6 7 3 1 3.</_></rects>
      <tilted>0</tilted></_>
    <_>
      <rects>
        <_>
          3 9 6 8 -1.</_>
        <_>
          5 9 2 8 3.</_></rects>
      <tilted>0</tilted></_>
    <_>
      <rects>
        <_>
          3 9 11 2 -1.</_>
        <_>
          3 10 11 1 2.</_></rects>
      <tilted>0</tilted></_>
    <_>
      <rects>
        <_>
          3 19 3 1 -1.</_>
        <_>
          4 19 1 1 3.</_></rects>
      <tilted>0</tilted></_>
    <_>
      <rects>
        <_>
          4 2 7 9 -1.</_>
        <_>
          4 5 7 3 3.</_></rects>
      <tilted>0</tilted></_>
    <_>
      <rects>
        <_>
          4 5 6 4 -1.</_>
        <_>
          4 5 3 2 2.</_>
        <_>
          7 7 3 2 2.</_></rects>
      <tilted>0</tilted></_>
    <_>
      <rects>
        <_>
          4 6 10 2 -1.</_>
        <_>
          4 6 5 1 2.</_>
        <_>
          9 7 5 1 2.</_></rects>
      <tilted>0</tilted></_>
    <_>
      <rects>
        <_>
          4 6 14 10 -1.</_>
        <_>
          11 6 7 10 2.</_></rects>
      <tilted>0</tilted></_>
    <_>
      <rects>
        <_>
          4 9 5 3 -1.</_>
        <_>
          4 10 5 1 3.</_></rects>
      <tilted>0</tilted></_>
    <_>
      <rects>
        <_>
          4 12 3 2 -1.</_>
        <_>
          4 13 3 1 2.</_></rects>
      <tilted>0</tilted></_>
    <_>
      <rects>
        <_>
          5 3 10 2 -1.</_>
        <_>
          5 4 10 1 2.</_></rects>
      <tilted>0</tilted></_>
    <_>
      <rects>
        <_>
          5 3 11 6 -1.</_>
        <_>
          5 5 11 2 3.</_></rects>
      <tilted>0</tilted></_>
    <_>
      <rects>
        <_>
          5 4 4 6 -1.</_>
        <_>
          5 6 4 2 3.</_></rects>
      <tilted>0</tilted></_>
    <_>
      <rects>
        <_>
          5 4 11 10 -1.</_>
        <_>
          5 9 11 5 2.</_></rects>
      <tilted>0</tilted></_>
    <_>
      <rects>
        <_>
          5 5 4 6 -1.</_>
        <_>
          5 5 2 3 2.</_>
        <_>
          7 8 2 3 2.</_></rects>
      <tilted>0</tilted></_>
    <_>
      <rects>
        <_>
          5 6 3 3 -1.</_>
        <_>
          5 7 3 1 3.</_></rects>
      <tilted>0</tilted></_>
    <_>
      <rects>
        <_>
          5 8 7 6 -1.</_>
        <_>
          5 10 7 2 3.</_></rects>
      <tilted>0</tilted></_>
    <_>
      <rects>
        <_>
          5 10 3 5 -1.</_>
        <_>
          6 10 1 5 3.</_></rects>
      <tilted>0</tilted></_>
    <_>
      <rects>
        <_>
          5 11 4 6 -1.</_>
        <_>
          5 11 2 3 2.</_>
        <_>
          7 14 2 3 2.</_></rects>
      <tilted>0</tilted></_>
    <_>
      <rects>
        <_>
          6 2 3 9 -1.</_>
        <_>
          6 5 3 3 3.</_></rects>
      <tilted>0</tilted></_>
    <_>
      <rects>
        <_>
          6 2 10 4 -1.</_>
        <_>
          6 4 10 2 2.</_></rects>
      <tilted>0</tilted></_>
    <_>
      <rects>
        <_>
          6 5 8 9 -1.</_>
        <_>
          10 5 4 9 2.</_></rects>
      <tilted>0</tilted></_>
    <_>
      <rects>
        <_>
          6 5 8 11 -1.</_>
        <_>
          10 5 4 11 2.</_></rects>
      <tilted>0</tilted></_>
    <_>
      <rects>
        <_>
          6 7 3 1 -1.</_>
        <_>
          7 7 1 1 3.</_></rects>
      <tilted>0</tilted></_>
    <_>
      <rects>
        <_>
          6 7 1 10 -1.</_>
        <_>
          6 12 1 5 2.</_></rects>
      <tilted>0</tilted></_>
    <_>
      <rects>
        <_>
          6 8 2 2 -1.</_>
        <_>
          6 8 1 1 2.</_>
        <_>
          7 9 1 1 2.</_></rects>
      <tilted>0</tilted></_>
    <_>
      <rects>
        <_>
          6 10 3 3 -1.</_>
        <_>
          6 11 3 1 3.</_></rects>
      <tilted>0</tilted></_>
    <_>
      <rects>
        <_>
          6 11 12 3 -1.</_>
        <_>
          10 11 4 3 3.</_></rects>
      <tilted>0</tilted></_>
    <_>
      <rects>
        <_>
          6 13 12 1 -1.</_>
        <_>
          10 13 4 1 3.</_></rects>
      <tilted>0</tilted></_>
    <_>
      <rects>
        <_>
          7 4 3 3 -1.</_>
        <_>
          8 4 1 3 3.</_></rects>
      <tilted>0</tilted></_>
    <_>
      <rects>
        <_>
          7 6 2 2 -1.</_>
        <_>
          7 6 1 1 2.</_>
        <_>
          8 7 1 1 2.</_></rects>
      <tilted>0</tilted></_>
    <_>
      <rects>
        <_>
          7 6 2 4 -1.</_>
        <_>
          7 6 1 2 2.</_>
        <_>
          8 8 1 2 2.</_></rects>
      <tilted>0</tilted></_>
    <_>
      <rects>
        <_>
          7 11 6 4 -1.</_>
        <_>
          7 13 6 2 2.</_></rects>
      <tilted>0</tilted></_>
    <_>
      <rects>
        <_>
          7 12 3 2 -1.</_>
        <_>
          7 13 3 1 2.</_></rects>
      <tilted>0</tilted></_>
    <_>
      <rects>
        <_>
          7 13 6 1 -1.</_>
        <_>
          10 13 3 1 2.</_></rects>
      <tilted>0</tilted></_>
    <_>
      <rects>
        <_>
          8 4 3 3 -1.</_>
        <_>
          9 4 1 3 3.</_></rects>
      <tilted>0</tilted></_>
    <_>
      <rects>
        <_>
          8 5 6 15 -1.</_>
        <_>
          11 5 3 15 2.</_></rects>
      <tilted>0</tilted></_>
    <_>
      <rects>
        <_>
          8 7 2 1 -1.</_>
        <_>
          9 7 1 1 2.</_></rects>
      <tilted>0</tilted></_>
    <_>
      <rects>
        <_>
          8 9 3 5 -1.</_>
        <_>
          9 9 1 5 3.</_></rects>
      <tilted>0</tilted></_>
    <_>
      <rects>
        <_>
          8 10 3 4 -1.</_>
        <_>
          9 10 1 4 3.</_></rects>
      <tilted>0</tilted></_>
    <_>
      <rects>
        <_>
          8 10 5 3 -1.</_>
        <_>
          8 11 5 1 3.</_></rects>
      <tilted>0</tilted></_>
    <_>
      <rects>
        <_>
          8 12 2 1 -1.</_>
        <_>
          9 12 1 1 2.</_></rects>
      <tilted>0</tilted></_>
    <_>
      <rects>
        <_>
          8 13 4 2 -1.</_>
        <_>
          8 14 4 1 2.</_></rects>
      <tilted>0</tilted></_>
    <_>
      <rects>
        <_>
          9 5 8 4 -1.</_>
        <_>
          9 5 4 2 2.</_>
        <_>
          13 7 4 2 2.</_></rects>
      <tilted>0</tilted></_>
    <_>
      <rects>
        <_>
          9 5 5 6 -1.</_>
        <_>
          9 7 5 2 3.</_></rects>
      <tilted>0</tilted></_>
    <_>
      <rects>
        <_>
          10 1 1 16 -1.</_>
        <_>
          10 9 1 8 2.</_></rects>
      <tilted>0</tilted></_>
    <_>
      <rects>
        <_>
          10 4 2 16 -1.</_>
        <_>
          11 4 1 16 2.</_></rects>
      <tilted>0</tilted></_>
    <_>
      <rects>
        <_>
          10 6 2 1 -1.</_>
        <_>
          11 6 1 1 2.</_></rects>
      <tilted>0</tilted></_>
    <_>
      <rects>
        <_>
          10 8 2 2 -1.</_>
        <_>
          10 8 1 1 2.</_>
        <_>
          11 9 1 1 2.</_></rects>
      <tilted>0</tilted></_>
    <_>
      <rects>
        <_>
          10 10 1 3 -1.</_>
        <_>
          10 11 1 1 3.</_></rects>
      <tilted>0</tilted></_>
    <_>
      <rects>
        <_>
          10 11 1 4 -1.</_>
        <_>
          10 13 1 2 2.</_></rects>
      <tilted>0</tilted></_>
    <_>
      <rects>
        <_>
          10 11 1 8 -1.</_>
        <_>
          10 15 1 4 2.</_></rects>
      <tilted>0</tilted></_>
    <_>
      <rects>
        <_>
          10 11 2 8 -1.</_>
        <_>
          10 15 2 4 2.</_></rects>
      <tilted>0</tilted></_>
    <_>
      <rects>
        <_>
          10 11 6 8 -1.</_>
        <_>
          12 11 2 8 3.</_></rects>
      <tilted>0</tilted></_>
    <_>
      <rects>
        <_>
          10 12 3 2 -1.</_>
        <_>
          10 13 3 1 2.</_></rects>
      <tilted>0</tilted></_>
    <_>
      <rects>
        <_>
          10 14 6 2 -1.</_>
        <_>
          10 15 6 1 2.</_></rects>
      <tilted>0</tilted></_>
    <_>
      <rects>
        <_>
          11 4 4 2 -1.</_>
        <_>
          11 4 2 1 2.</_>
        <_>
          13 5 2 1 2.</_></rects>
      <tilted>0</tilted></_>
    <_>
      <rects>
        <_>
          11 4 6 4 -1.</_>
        <_>
          11 4 3 2 2.</_>
        <_>
          14 6 3 2 2.</_></rects>
      <tilted>0</tilted></_>
    <_>
      <rects>
        <_>
          11 6 3 14 -1.</_>
        <_>
          12 6 1 14 3.</_></rects>
      <tilted>0</tilted></_>
    <_>
      <rects>
        <_>
          11 6 4 12 -1.</_>
        <_>
          11 10 4 4 3.</_></rects>
      <tilted>0</tilted></_>
    <_>
      <rects>
        <_>
          11 8 2 1 -1.</_>
        <_>
          12 8 1 1 2.</_></rects>
      <tilted>0</tilted></_>
    <_>
      <rects>
        <_>
          11 15 2 2 -1.</_>
        <_>
          12 15 1 2 2.</_></rects>
      <tilted>0</tilted></_>
    <_>
      <rects>
        <_>
          12 3 4 6 -1.</_>
        <_>
          12 3 2 3 2.</_>
        <_>
          14 6 2 3 2.</_></rects>
      <tilted>0</tilted></_>
    <_>
      <rects>
        <_>
          12 4 2 2 -1.</_>
        <_>
          12 4 1 1 2.</_>
        <_>
          13 5 1 1 2.</_></rects>
      <tilted>0</tilted></_>
    <_>
      <rects>
        <_>
          12 6 6 5 -1.</_>
        <_>
          14 6 2 5 3.</_></rects>
      <tilted>0</tilted></_>
    <_>
      <rects>
        <_>
          12 6 6 7 -1.</_>
        <_>
          14 6 2 7 3.</_></rects>
      <tilted>0</tilted></_>
    <_>
      <rects>
        <_>
          12 7 6 6 -1.</_>
        <_>
          14 7 2 6 3.</_></rects>
      <tilted>0</tilted></_>
    <_>
      <rects>
        <_>
          12 7 6 7 -1.</_>
        <_>
          14 7 2 7 3.</_></rects>
      <tilted>0</tilted></_>
    <_>
      <rects>
        <_>
          12 10 3 5 -1.</_>
        <_>
          13 10 1 5 3.</_></rects>
      <tilted>0</tilted></_>
    <_>
      <rects>
        <_>
          12 14 2 4 -1.</_>
        <_>
          13 14 1 4 2.</_></rects>
      <tilted>0</tilted></_>
    <_>
      <rects>
        <_>
          13 5 2 2 -1.</_>
        <_>
          13 5 1 1 2.</_>
        <_>
          14 6 1 1 2.</_></rects>
      <tilted>0</tilted></_>
    <_>
      <rects>
        <_>
          13 6 3 3 -1.</_>
        <_>
          14 6 1 3 3.</_></rects>
      <tilted>0</tilted></_>
    <_>
      <rects>
        <_>
          13 7 2 10 -1.</_>
        <_>
          13 7 1 5 2.</_>
        <_>
          14 12 1 5 2.</_></rects>
      <tilted>0</tilted></_>
    <_>
      <rects>
        <_>
          13 10 3 7 -1.</_>
        <_>
          14 10 1 7 3.</_></rects>
      <tilted>0</tilted></_>
    <_>
      <rects>
        <_>
          13 12 2 5 -1.</_>
        <_>
          14 12 1 5 2.</_></rects>
      <tilted>0</tilted></_>
    <_>
      <rects>
        <_>
          14 5 2 2 -1.</_>
        <_>
          15 5 1 2 2.</_></rects>
      <tilted>0</tilted></_>
    <_>
      <rects>
        <_>
          14 8 2 3 -1.</_>
        <_>
          14 9 2 1 3.</_></rects>
      <tilted>0</tilted></_>
    <_>
      <rects>
        <_>
          14 16 6 3 -1.</_>
        <_>
          16 16 2 3 3.</_></rects>
      <tilted>0</tilted></_>
    <_>
      <rects>
        <_>
          15 5 4 6 -1.</_>
        <_>
          17 5 2 6 2.</_></rects>
      <tilted>0</tilted></_>
    <_>
      <rects>
        <_>
          18 14 2 6 -1.</_>
        <_>
          18 14 1 3 2.</_>
        <_>
          19 17 1 3 2.</_></rects>
      <tilted>0</tilted></_>
    <_>
      <rects>
        <_>
          19 0 1 6 -1.</_>
        <_>
          19 2 1 2 3.</_></rects>
      <tilted>0</tilted></_></features></cascade>
</opencv_storage>
